tree
version=v4
num_class=1
num_tree_per_iteration=1
label_index=0
max_feature_idx=2
objective=binary sigmoid:1
feature_names=Column_0 Column_1 Column_2
feature_infos=[88873:104930] [1.7292064:360.2613025] [17.935545252473702:81.333503108732756]
tree_sizes=2110 2096 1984 2089 1885 2091 1881 1889 2198 1987 1988 1889 1990 1991 2095 1790 2090 1997 2101 2097 1996 1988 2000 1989 2098 2105 2197 2103 2104 2011 2106 2109 2211 1998 2197 1881 2101 2098 1997 2204 1998 2210 2197 2001 2109 2006 2212 2110 2011 2089 2111 2104 1907 2306 2101 2213 2114 2116 2197 2207 2109 2108 2218 2093 2328 2531 2532 2325 2538 2317 2313 2213 2644 2002 2120 2103 2431 2223 2108 2635 2108 2329 2004 2214 2334 2003 2103 1900 2108 2227 2325 2202 2321 2105 2222 2224 2107 2213 2224 2119

Tree=0
num_leaves=19
num_cat=0
split_feature=0 1 0 0 0 1 1 1 0 0 0 1 0 1 0 1 0 0
split_gain=7.18733 3.85581 5.75861 6.91731 2.17572 8.96277 7.31267 4.18474 3.24223 4.07487 4.06634 4.00411 1.88021 1.07705 1.03925 0.652744 1.29559 0.529082
threshold=92022.500000000015 8.6865871600000002 93102.000000000015 93993.500000000015 100695.00000000001 49.353730235000008 68.459801060000004 34.556263140000006 95256.000000000015 98487.000000000015 97569.000000000015 31.950062175000003 100225.00000000001 27.293876025000003 102330.00000000001 16.973795500000005 91446.000000000015 99565.000000000015
decision_type=2 2 2 2 2 2 2 2 2 2 2 2 2 2 2 2 2 2
left_child=15 -2 13 -4 5 8 -7 -6 -5 10 11 -10 17 -3 -9 -1 -17 -11
right_child=1 2 3 4 7 6 -8 14 9 12 -12 -13 -14 -15 -16 16 -18 -19
leaf_value=-0.018360473634007439 -0.0083242863546506528 -0.084755428146552181 0.016431642267762732 -0.083802786877813229 -0.01711789806608708 0.042525729194090367 -0.031407517097171246 -0.079992221802857449 -0.013220729239427756 -0.077573978582212405 0.0070645341403630726 -0.074276374190423766 -0.031407517097171246 -0.055223548815644868 -0.051412983740689089 0.015271905071037067 -0.017117898066087073 -0.058081472621861703
leaf_weight=5.7484289407730129 9.7473360300064069 7.4979507923126203 5.7484289407730094 5.2485655546188346 5.2485655546188381 5.7484289407730085 7.9978141784667969 8.7476092576980573 5.4984972476959246 6.4982240200042742 6.4982240200042716 5.2485655546188354 4.9986338615417472 5.2485655546188354 4.9986338615417472 7.4979507923126203 5.2485655546188354 7.4979507923126221
leaf_count=23 39 30 23 21 21 23 32 35 22 26 26 21 20 21 20 30 21 30
internal_value=-0.0330609 -0.0382387 -0.0413833 -0.0364089 -0.0405009 -0.035481 -0.000489978 -0.0550982 -0.0470744 -0.0417552 -0.0241592 -0.0430386 -0.0577305 -0.0725952 -0.0695998 -0.0043731 0.00193493 -0.0671316
internal_weight=0 102.472 92.7247 79.9781 74.2297 55.2349 13.7462 18.9948 41.4887 36.2401 17.2453 10.7471 18.9948 12.7465 13.7462 18.4949 12.7465 13.9962
internal_count=484 410 371 320 297 221 55 76 166 145 69 43 76 51 55 74 51 56
is_linear=0
shrinkage=1


Tree=1
num_leaves=19
num_cat=0
split_feature=0 1 0 0 0 1 1 1 0 0 0 1 0 1 1 1 0 0
split_gain=6.48605 3.48019 5.20411 6.24242 1.96514 8.09093 6.60139 3.86042 2.9323 3.67992 3.66899 3.61704 1.69944 1.00356 0.975715 0.588938 1.16896 0.479087
threshold=92022.500000000015 8.6865871600000002 93102.000000000015 93993.500000000015 100695.00000000001 49.353730235000008 68.459801060000004 52.008536805000013 95256.000000000015 98487.000000000015 97569.000000000015 31.950062175000003 100225.00000000001 34.556263140000006 27.293876025000003 16.973795500000005 91446.000000000015 99565.000000000015
decision_type=2 2 2 2 2 2 2 2 2 2 2 2 2 2 2 2 2 2
left_child=15 -2 14 -4 5 8 -7 13 -5 10 11 -10 17 -6 -3 -1 -17 -11
right_child=1 2 3 4 7 6 -8 -9 9 12 -12 -13 -14 -15 -16 16 -18 -19
leaf_value=0.01396265002256899 0.023493540177264998 -0.049186324472149115 0.047007692099321145 -0.048277925581181165 0.015142698565855718 0.071819538069328892 0.0015706358981556097 -0.045358653880051697 0.018843668897056121 -0.042340723723323911 0.038108788277450664 -0.039199045719128536 0.0015706358981556101 -0.016169582306300431 -0.021065098225778477 0.045905759483542544 0.015142698565855723 -0.023783454209127301
leaf_weight=5.7495153844356564 9.7498308867216092 7.4865469336509687 5.7496120333671561 5.240793138742446 5.2496154159307498 5.7474011033773404 7.9980273246765137 8.7402360737323743 5.4997597038745898 6.4902309477329272 6.4999190270900717 5.2427655011415482 4.9987670779228202 4.9924787282943726 5.2459992617368698 7.4995627999305707 5.249615415930748 7.493678480386734
leaf_count=23 39 30 23 21 21 23 32 35 22 26 26 21 20 20 21 30 21 30
internal_value=0 -0.00492173 -0.00791112 -0.00318259 -0.00707206 -0.00230069 0.0309439 -0.0209499 -0.0133209 -0.00826352 0.00845752 -0.00948341 -0.0234517 -0.000120381 -0.0376 0.0272476 0.0332387 -0.0323963
internal_weight=0 102.426 92.6758 79.9433 74.1937 55.2113 13.7454 18.9823 41.4659 36.2251 17.2424 10.7425 18.9827 10.2421 12.7325 18.4987 12.7492 13.9839
internal_count=484 410 371 320 297 221 55 76 166 145 69 43 76 41 51 74 51 56
is_linear=0
shrinkage=0.05


Tree=2
num_leaves=18
num_cat=0
split_feature=1 2 1 2 2 2 1 1 2 2 2 1 1 2 2 1 2
split_gain=4.27731 4.30711 3.89766 6.22296 5.85113 2.93809 2.60406 2.4375 1.51453 3.27822 1.63829 1.49232 1.40721 1.30008 2.51814 1.85298 0.406777
threshold=11.014981230000002 31.928168824784837 42.068432210000005 42.935195328709405 36.838734597958073 52.60466124223624 32.387830285000007 90.334195560000012 45.758892749828668 53.270742093257638 56.380318441858556 24.312223230000004 24.312223230000004 56.022862191095719 50.653309607375782 53.13980655000001 47.218305682719553
decision_type=2 2 2 2 2 2 2 2 2 2 2 2 2 2 2 2 2
left_child=5 -2 3 4 -3 16 -6 13 -5 11 -11 -10 -12 14 15 -4 -1
right_child=1 2 7 8 6 -7 -8 -9 9 10 12 -13 -14 -15 -16 -17 -18
leaf_value=0.050530257145192242 0.03799440957710188 0.0023600783306903564 -0.0074931628550983127 0.022278522996239811 -0.039421918246998797 0.0010486901123769102 -0.08576309595203821 -0.015398806017710223 -0.0085628806849167346 0.026692765980910561 -0.019523027022872841 -0.040141297471241164 0.012495899256933446 -0.0058392927904345046 0.050781939483933426 0.02658927489329856 0.030356309207234811
leaf_weight=4.9969334453344363 5.7439657598733893 5.9863598644733456 7.7307152897119584 4.9931672513484946 7.734147831797598 8.9909711331129056 4.9857131391763687 9.7341993898153287 7.2435009181499463 6.4879952222108868 6.9863488078117353 7.7380088269710541 6.7440064251422882 6.4861045479774466 4.9895807206630698 8.2371618598699552 4.997866690158844
leaf_count=20 23 24 31 20 31 36 20 39 29 26 28 31 27 26 20 33 20
internal_value=0 -0.00406353 -0.00657796 -0.0145791 -0.038402 0.0217869 -0.0575859 0.00609784 -0.00349161 -0.00714715 0.00598764 -0.0248733 -0.00379613 0.0137227 0.0197769 0.0100885 0.0404423
internal_weight=0 101.821 96.077 58.8992 18.7062 18.9858 12.7199 37.1778 40.193 35.1999 20.2184 14.9815 13.7304 27.4436 20.9575 15.9679 9.9948
internal_count=484 408 385 236 75 76 51 149 161 141 81 60 55 110 84 64 40
is_linear=0
shrinkage=0.05


Tree=3
num_leaves=19
num_cat=0
split_feature=0 1 0 0 0 1 1 1 0 0 1 0 0 1 1 1 0 1
split_gain=5.66976 2.8962 4.67975 5.55451 1.84167 6.95594 5.89576 3.46375 2.60755 3.3649 3.34522 3.21258 1.49769 0.942947 0.883836 0.60358 1.04694 0.404967
threshold=92022.500000000015 8.6865871600000002 93102.000000000015 93993.500000000015 100695.00000000001 49.353730235000008 68.459801060000004 52.008536805000013 95256.000000000015 98487.000000000015 23.414667440000002 97163.000000000015 100225.00000000001 34.556263140000006 27.293876025000003 16.973795500000005 91446.000000000015 17.822344830000002
decision_type=2 2 2 2 2 2 2 2 2 2 2 2 2 2 2 2 2 2
left_child=15 -2 14 -4 5 8 -7 13 -5 10 -10 -12 17 -6 -3 -1 -17 -11
right_child=1 2 3 4 7 6 -8 -9 9 12 11 -13 -14 -15 -16 16 -18 -19
leaf_value=0.012031490868641609 0.021316805086510581 -0.046579692802682711 0.044523924689064291 -0.045168575647036531 0.014549566355658084 0.06768506534580658 0.0012201434861996516 -0.043122746359550747 0.041921520643927346 -0.019327880818683477 -0.03083405210939302 0.021016298617597795 0.0015838816816314398 -0.015807057591944378 -0.019788191361212612 0.043548542587006904 0.014426100985261748 -0.03692034353057768
leaf_weight=5.7485627233982113 9.7459772080183011 7.4624425172805768 5.741499811410903 5.2190702408552161 5.2494161576032656 5.7248450964689237 7.9977291077375412 8.7213305830955488 5.2479719072580364 5.2379050999879864 6.2263518720865232 5.7427080124616623 4.998168244957923 4.9896422922611237 5.2398436367511749 7.4900002628564817 5.2486595064401627 8.7120926231145841
leaf_count=23 39 30 23 21 21 23 32 35 21 21 25 23 20 20 21 30 21 35
internal_value=0 -0.00460837 -0.00733958 -0.00285315 -0.0065257 -0.001901 0.0289483 -0.019967 -0.0121303 -0.00736246 0.00863736 -0.00595646 -0.0219005 -0.000243659 -0.0355279 0.0254803 0.0315493 -0.0303148
internal_weight=0 102.257 92.511 79.8087 74.0672 55.1068 13.7226 18.9604 41.3843 36.1652 17.217 11.9691 18.9482 10.2391 12.7023 18.4872 12.7387 13.95
internal_count=484 410 371 320 297 221 55 76 166 145 69 48 76 41 51 74 51 56
is_linear=0
shrinkage=0.05


Tree=4
num_leaves=17
num_cat=0
split_feature=1 1 1 2 1 2 2 2 1 1 2 1 2 2 2 2
split_gain=3.68683 3.84593 5.67012 6.93278 5.54064 2.83736 2.78637 2.60673 2.472 2.36322 1.92104 3.59737 3.60368 1.10473 1.07985 0.363113
threshold=11.014981230000002 30.414600805000003 23.414667440000002 53.270742093257638 16.777732060000002 35.919961309383964 40.354651837416732 52.60466124223624 20.184347825000007 90.334195560000012 60.778044502826816 58.307502985000006 50.957628338351704 52.37210121968041 46.965417733938459 47.218305682719553
decision_type=2 2 2 2 2 2 2 2 2 2 2 2 2 2 2 2
left_child=7 2 4 -4 13 -3 -7 15 -6 10 11 12 14 -2 -8 -1
right_child=1 5 3 -5 8 6 9 -9 -10 -11 -12 -13 -14 -15 -16 -17
leaf_value=0.047351964413208769 -0.036230238364740229 0.029282839043979464 -0.065223769230689746 0.0061421738161577411 0.04341608145759987 -0.025883957763936663 0.0049459528528991176 0.00069119514488937299 -0.0023994222959975268 -0.018847560704525403 -0.013889390068164224 0.049838872784122773 0.033427068350608886 -0.007401004911205579 -0.023155940501066546 0.028282378082981275
leaf_weight=4.9911021888256091 7.4684777557849902 9.4697376489639264 9.7052990943193418 5.2405483573675147 6.7276075035333616 8.9340265542268735 6.9570204913616234 8.9828180819749814 5.2352675944566727 8.4658538997173292 6.4745163619518271 6.2258807867765418 7.9745586514472953 5.9867331385612488 6.7209508866071701 4.9941698461771011
leaf_count=20 30 38 39 21 27 36 28 36 21 34 26 25 32 24 27 20
internal_value=0 -0.00377998 -0.0157615 -0.0402003 -0.00139144 0.00411942 -0.00048499 0.0202337 0.023366 0.00481444 0.0106456 0.0163437 0.00671262 -0.023403 -0.00886249 0.0378142
internal_weight=0 101.586 40.3639 14.9458 25.4181 61.2225 51.7528 18.9681 11.9629 42.8188 34.3529 27.8784 21.6525 13.4552 13.678 9.98527
internal_count=484 408 162 60 102 246 208 76 48 172 138 112 87 54 55 40
is_linear=0
shrinkage=0.05


Tree=5
num_leaves=19
num_cat=0
split_feature=0 0 0 0 1 0 0 1 1 0 0 0 0 0 1 1 1 0
split_gain=4.93941 2.64743 4.11171 3.09774 2.39553 3.98537 3.94605 7.05646 4.12009 3.0615 2.84231 1.60123 3.57557 2.51014 1.3231 0.978357 0.559215 0.968374
threshold=92022.500000000015 93102.000000000015 93993.500000000015 92447.500000000015 21.896012200000005 99887.000000000015 100975.00000000001 48.705978475000009 61.222790730000007 101585.00000000001 98517.000000000015 97163.000000000015 98487.000000000015 100135.00000000001 11.991843260000001 8.9763002000000025 16.973795500000005 91446.000000000015
decision_type=2 2 2 2 2 2 2 2 2 2 2 2 2 2 2 2 2 2
left_child=16 3 -3 15 5 14 7 11 -9 -8 -10 -6 -13 -14 -4 -2 -1 -18
right_child=1 2 4 -5 6 -7 9 8 10 -11 -12 12 13 -15 -16 -17 17 -19
leaf_value=0.010850815668803417 0.011035491650861791 0.038544221653343716 0.048269160456854351 -0.046381315556183106 -0.033635943793125393 -0.015274055588124197 -0.063832763498471029 0.063049541284833963 -0.019481873479879334 -0.014663428072919708 0.033275785457186735 0.023250962649392387 -0.045071150755364969 0.0021680553173792378 0.015416237760624292 -0.019209033779153513 0.041213181652038959 0.013182577006830521
leaf_weight=5.7432289272546795 5.2433487623929995 6.2229257673025122 4.9822234660387057 7.4489317238330832 9.4138549715280551 8.9904829859733564 4.9718534499406806 4.9562361985445014 4.9928160905837995 8.7151731699705106 5.2241955399513245 5.9896351546049145 6.4386940747499448 4.9926599413156509 7.9626632630825043 5.4564681947231293 7.4687975049018842 5.2449490875005722
leaf_count=23 21 25 20 30 38 36 20 20 20 35 21 24 26 20 32 22 30 21
internal_value=0 -0.00430893 -0.000561439 -0.0216236 -0.00369618 0.0102994 -0.0092083 -0.0016115 0.0256411 -0.0325243 0.00749434 -0.0170209 -0.00804261 -0.0244394 0.0280607 -0.00438798 0.0237999 0.0296494
internal_weight=0 102.002 83.8534 18.1487 77.6305 21.9354 55.6951 42.0081 15.1732 13.687 10.217 26.8348 17.421 11.4314 12.9449 10.6998 18.457 12.7137
internal_count=484 410 337 73 312 88 224 169 61 55 41 108 70 46 52 43 74 51
is_linear=0
shrinkage=0.05


Tree=6
num_leaves=17
num_cat=0
split_feature=1 1 1 2 1 2 2 2 1 1 2 1 2 2 2 2
split_gain=3.13548 3.37896 4.96195 6.26088 5.14566 2.42997 2.62427 2.23431 2.12901 2.12867 1.73487 3.03756 3.23311 1.0156 0.992556 0.285036
threshold=11.014981230000002 30.414600805000003 23.414667440000002 53.270742093257638 16.777732060000002 35.919961309383964 40.354651837416732 52.60466124223624 20.184347825000007 90.334195560000012 60.778044502826816 58.307502985000006 50.957628338351704 52.37210121968041 46.965417733938459 47.218305682719553
decision_type=2 2 2 2 2 2 2 2 2 2 2 2 2 2 2 2
left_child=7 2 4 -4 13 -3 -7 15 -6 10 11 12 14 -2 -8 -1
right_child=1 5 3 -5 8 6 9 -9 -10 -11 -12 -13 -14 -15 -16 -17
leaf_value=0.043450963633653597 -0.034843709478244937 0.027249667223969872 -0.061567859856494836 0.0063508196826475823 0.041165638356774073 -0.025043096237044839 0.0053757588176628571 0.00058114584234841501 -0.0013705673512766263 -0.017678287282513461 -0.013001836554357058 0.04660699691539158 0.032219853311750868 -0.0071847448982510055 -0.021610640107396956 0.026533604433123709
leaf_weight=4.9716816842556018 7.455544054508211 9.4386490583419782 9.6413728445768339 5.2357111722230902 6.7262645810842496 8.898982882499693 6.9393527358770424 8.9754991084337217 5.228295773267746 8.4459939002990705 6.4563404619693747 6.2036070972681037 7.965618520975112 5.9815946817398071 6.694090873003006 4.9877759367227554
leaf_count=20 30 38 39 21 27 36 28 36 21 34 26 25 32 24 27 20
internal_value=0 -0.00349287 -0.0147354 -0.0376652 -0.00130081 0.00392365 -0.000342799 0.0186736 0.0225625 0.00480431 0.010347 0.0157691 0.00691196 -0.0225312 -0.0078747 0.0349786
internal_weight=0 101.311 40.2688 14.8771 25.3917 61.0426 51.604 18.935 11.9546 42.705 34.259 27.8027 21.5991 13.4371 13.6334 9.95946
internal_count=484 408 162 60 102 246 208 76 48 172 138 112 87 54 55 40
is_linear=0
shrinkage=0.05


Tree=7
num_leaves=17
num_cat=0
split_feature=1 1 1 2 1 2 2 2 1 1 2 1 2 2 2 2
split_gain=2.83371 3.05617 4.5031 5.70225 4.64766 2.19641 2.37065 2.02385 1.92308 1.92228 1.56713 2.75532 2.91789 0.920716 0.896899 0.260382
threshold=11.014981230000002 30.414600805000003 23.414667440000002 53.270742093257638 16.777732060000002 35.919961309383964 40.354651837416732 52.60466124223624 90.334195560000012 20.184347825000007 60.778044502826816 58.307502985000006 50.957628338351704 52.37210121968041 46.965417733938459 47.218305682719553
decision_type=2 2 2 2 2 2 2 2 2 2 2 2 2 2 2 2
left_child=7 2 4 -4 13 -3 -7 15 10 -6 11 12 14 -2 -8 -1
right_child=1 5 3 -5 9 6 8 -9 -10 -11 -12 -13 -14 -15 -16 -17
leaf_value=0.041423185516149624 -0.033174829821080921 0.025924486136014138 -0.058852243673513605 0.006032727213389568 0.039119455867985542 -0.023812801875489075 0.0051055085966904548 0.00055208719618386813 -0.016813797350649744 -0.001302101788586831 -0.012356340662650553 0.044421461600654299 0.030608171333348939 -0.0068261801599769278 -0.020552844411128455 0.02523566960781868
leaf_weight=4.9547304958105105 7.4394725561141986 9.425401419401167 9.5833821594715101 5.2361775338649741 6.7242133021354658 8.8910117745399457 6.9412886351347023 8.9755275994539243 8.4364811182022077 5.2280516624450684 6.4539979696273795 6.1838722825050345 7.9657759815454474 5.9810206741094589 6.6868688762187958 4.9822327494621277
leaf_count=20 30 38 39 21 27 36 28 36 34 21 26 25 32 24 27 20
internal_value=0 -0.00332343 -0.0140277 -0.0359265 -0.00123718 0.00373128 -0.000325797 0.0177621 0.00456831 0.0214386 0.00983797 0.0149947 0.0065677 -0.0214322 -0.00748416 0.033307
internal_weight=0 101.177 40.1923 14.8196 25.3728 60.9847 51.5593 18.9125 42.6683 11.9523 34.2318 27.7778 21.5939 13.4205 13.6282 9.93696
internal_count=484 408 162 60 102 246 208 76 172 48 138 112 87 54 55 40
is_linear=0
shrinkage=0.05


Tree=8
num_leaves=20
num_cat=0
split_feature=0 0 0 0 0 1 1 1 0 0 0 1 0 1 1 1 1 1 0
split_gain=4.17109 2.44019 3.62009 2.74223 2.22863 4.046 4.00088 4.79373 2.84399 3.65402 1.79542 4.32581 2.72057 1.62674 1.5675 0.76589 0.598237 0.528359 0.916887
threshold=92022.500000000015 93102.000000000015 93993.500000000015 92447.500000000015 99887.000000000015 17.466775230000003 48.705978475000009 68.459801060000004 98694.000000000015 97569.000000000015 100440.00000000001 24.312223230000004 100975.00000000001 31.950062175000003 52.008536805000013 8.9763002000000025 11.991843260000001 16.973795500000005 91446.000000000015
decision_type=2 2 2 2 2 2 2 2 2 2 2 2 2 2 2 2 2 2 2
left_child=17 3 -3 15 5 16 8 -8 9 13 -6 -12 -13 -7 -14 -2 -4 -1 -19
right_child=1 2 4 -5 10 6 7 -9 -10 -11 11 12 14 -15 -16 -17 -18 18 -20
leaf_value=0.0093154042806868152 0.0092441092085601469 0.036445878520010647 0.044041268840256033 -0.044027245515235069 -0.034471275559894439 -0.0049166039950171991 0.054177771153041766 -0.010120745599459057 -0.049849998756730962 0.023359197527603914 0.031115945500131848 0.010941534519763907 -0.010032726577007569 -0.041281523645014723 -0.045555295190222257 -0.017571061220393171 0.019765696545715396 0.038917505195633223 0.011577840226988996
leaf_weight=5.724698647856715 5.2327307909727114 6.1838938742876044 4.9513902515172941 7.3973839282989493 7.7067851573228863 6.1449722051620537 5.4176657944917661 6.2346311807632446 4.920034557580947 6.4452626556158057 5.7452837377786663 5.4704574346542385 5.2251403331756574 6.1563738882541656 7.6557627469301224 5.4219919443130493 5.2066230028867722 7.4232437908649427 5.2254012227058411
leaf_count=23 21 25 20 30 31 25 22 25 20 26 23 22 21 25 31 22 21 30 21
internal_value=0 -0.00397075 -0.000365564 -0.0206394 -0.00331118 0.00378943 -0.00420869 0.0197745 -0.0160168 -0.00713733 -0.0134646 -0.00674608 -0.0185996 -0.0231159 -0.0311456 -0.00440164 0.0315985 0.0219188 0.027623
internal_weight=0 101.516 83.4643 18.0521 77.2804 45.477 35.3189 11.6523 23.6666 18.7466 31.8034 24.0966 18.3514 12.3013 12.8809 10.6547 10.158 18.3733 12.6486
internal_count=484 410 337 73 312 184 143 47 96 76 128 97 74 50 52 43 41 74 51
is_linear=0
shrinkage=0.05


Tree=9
num_leaves=18
num_cat=0
split_feature=1 1 1 2 1 2 2 2 1 1 1 1 2 1 2 1 2
split_gain=2.39856 2.85402 3.98327 5.2893 4.35943 1.82367 2.24884 1.76946 1.76391 1.76297 1.40895 2.48774 3.80523 2.1681 2.05523 0.954225 0.200472
threshold=11.014981230000002 30.414600805000003 23.414667440000002 53.270742093257638 16.777732060000002 35.919961309383964 40.354651837416732 52.60466124223624 20.184347825000007 34.556263140000006 44.931896820000013 86.616510940000012 56.022862191095719 58.307502985000006 50.957628338351704 13.236804675000002 47.218305682719553
decision_type=2 2 2 2 2 2 2 2 2 2 2 2 2 2 2 2 2
left_child=7 2 4 -4 15 -3 -7 16 -6 -8 14 12 13 -12 -11 -2 -1
right_child=1 5 3 -5 8 6 9 -9 -10 10 11 -13 -14 -15 -16 -17 -18
leaf_value=0.038112348463681264 -0.037717857047997128 0.024039510331114157 -0.056342831448607689 0.006273717277942183 0.037538493227018965 -0.022870693469371754 0.032827943109209369 0.00027841448633008167 -0.0012171007818527818 -0.035828519307532281 0.016486859778581962 -0.014389750133757482 -0.014848855239142519 0.059648300171112105 0.0081034476157217147 -0.010339813359930707 0.023872784764464076
leaf_weight=4.9156060367822665 5.2057123035192516 9.3804780542850477 9.4961938560008985 5.2299803644418708 6.7094992697238904 8.8468242138624174 4.9681483507156363 8.9643376022577268 5.2202097326517105 5.4215554893016797 7.1438966095447594 8.9006480574607831 5.9332821667194358 4.908840611577034 5.2306433320045471 8.189396992325781 4.9716146141290665
leaf_count=20 21 38 39 21 27 36 20 36 21 22 29 36 24 20 21 33 20
internal_value=0 -0.00306531 -0.0134265 -0.0341047 -0.00140235 0.00376734 6.43554e-05 0.0163661 0.0205798 0.00483774 0.00113333 0.00723049 0.0179296 0.0340657 -0.0142562 -0.0209797 0.0309522
internal_weight=0 100.785 40.051 14.7262 25.3248 60.7343 51.3538 18.8516 11.9297 42.507 37.5389 26.8867 17.986 12.0527 10.6522 13.3951 9.88722
internal_count=484 408 162 60 102 246 208 76 48 172 152 109 73 49 43 54 40
is_linear=0
shrinkage=0.05


Tree=10
num_leaves=18
num_cat=0
split_feature=1 1 1 2 1 1 2 2 2 1 1 1 2 1 2 1 2
split_gain=2.16917 2.58384 3.64079 3.94571 3.3804 2.17556 1.6494 2.03256 1.60556 1.58927 1.27443 2.25026 3.44663 1.98978 1.86353 0.865223 0.184406
threshold=11.014981230000002 30.414600805000003 23.980397755000002 53.270742093257638 16.777732060000002 20.184347825000007 35.919961309383964 40.354651837416732 52.60466124223624 34.556263140000006 44.931896820000013 86.616510940000012 56.022862191095719 58.307502985000006 50.957628338351704 13.236804675000002 47.218305682719553
decision_type=2 2 2 2 2 2 2 2 2 2 2 2 2 2 2 2 2
left_child=8 2 4 -4 15 -6 -3 -8 16 -9 14 12 13 -12 -11 -2 -1
right_child=1 6 3 -5 5 -7 7 9 -10 10 11 -13 -14 -15 -16 -17 -18
leaf_value=0.036397386326981411 -0.03591984560964661 0.022884647175931239 -0.055574199073296394 0.00082352424520401818 0.035720861809540143 -0.0046250031957802886 -0.021756345585349668 0.031167885753947522 0.00026449245228853639 -0.03417439890193457 0.015666100512368331 -0.013686998238740894 -0.01411145247436502 0.057109933965710138 0.0076962942520523644 -0.0098281181554284846 0.022717179161742703
leaf_weight=4.8905001878738421 5.1932864934206036 9.3616500347852689 8.2149442732334119 4.9821230620145789 6.6986275315284711 6.6665832102298737 8.8352505862712842 4.9710353165864936 8.9643436819314939 5.4003149569034559 7.1422996968030983 8.8900396823883039 5.9312142282724372 4.8716094642877579 5.231954500079155 8.1850962489843351 4.9634984880685806
leaf_count=20 21 38 34 20 27 27 36 20 36 22 29 36 24 20 21 33 20
internal_value=0 -0.00291894 -0.0127933 -0.0342831 -0.00218887 0.0155963 0.00358536 6.16556e-05 0.0155768 0.00460394 0.00107954 0.006884 0.0170749 0.0324715 -0.0135706 -0.0199565 0.0295066
internal_weight=0 100.576 39.9407 13.1971 26.7436 13.3652 60.6354 51.2737 18.8183 42.4385 37.4674 26.8352 17.9451 12.0139 10.6323 13.3784 9.854
internal_count=484 408 162 54 108 54 246 208 76 172 152 109 73 49 43 54 40
is_linear=0
shrinkage=0.05


Tree=11
num_leaves=17
num_cat=0
split_feature=1 1 1 2 1 2 2 1 1 1 2 1 2 1 2 2
split_gain=1.96207 2.33979 3.31936 4.50314 3.57478 1.49199 1.83748 1.46719 2.0767 1.87405 2.00573 2.55266 1.45755 1.43081 0.829592 0.169848
threshold=11.014981230000002 30.414600805000003 23.414667440000002 53.270742093257638 16.777732060000002 35.919961309383964 40.354651837416732 37.061206130000009 42.918487880000008 86.616510940000012 56.022862191095719 58.307502985000006 52.60466124223624 20.184347825000007 52.37210121968041 47.218305682719553
decision_type=2 2 2 2 2 2 2 2 2 2 2 2 2 2 2 2
left_child=12 2 4 -4 14 -3 -7 -8 -9 10 11 -10 15 -6 -2 -1
right_child=1 5 3 -5 13 6 7 8 9 -11 -12 -13 -14 -15 -16 -17
leaf_value=0.034774983096718004 -0.030185927965195914 0.02178894450926977 -0.052025562920098037 0.0059313511994021316 0.034010946901346192 -0.020699857200076138 0.024124518403643505 -0.025108628998302913 0.008838586458168823 -0.01301904521905968 -0.0086612033767024168 0.05475172949474208 0.00025126893720597767 -0.00092522374278619255 -0.0051236773260738633 0.02162156494041945
leaf_weight=4.8634249716997164 7.3898057788610476 9.341322109103201 9.3302464187145215 5.2303486019372931 6.6839994341135007 8.8222121447324735 7.7005837112665168 6.6554881334304801 8.1156353652477318 8.8791262209415418 6.1782613992691031 4.8284561634063712 8.9643492400646192 5.2190960198640823 5.9689356684684753 4.9544905126094818
leaf_count=20 30 38 39 21 27 36 31 27 33 36 25 20 36 21 24 20
internal_value=0 -0.00278014 -0.0121926 -0.0312067 -0.00123311 0.00341319 5.92481e-05 0.00438295 -3.52126e-06 0.00596355 0.0147778 0.0259653 0.0148279 0.0186926 -0.0189876 0.0281373
internal_weight=0 100.344 39.8224 14.5606 25.2618 60.5211 51.1798 42.3576 34.657 28.0015 19.1224 12.9441 18.7823 11.9031 13.3587 9.81792
internal_count=484 408 162 60 102 246 208 172 141 114 78 53 76 48 54 40
is_linear=0
shrinkage=0.05


Tree=12
num_leaves=18
num_cat=0
split_feature=1 1 1 2 1 1 2 2 2 1 1 2 2 2 1 2 1
split_gain=1.77502 2.12025 3.06309 3.3008 2.7868 1.75602 1.34981 1.80968 2.65623 2.88156 1.77985 4.23923 3.33846 1.32369 0.792348 0.156599 0.124567
threshold=11.014981230000002 30.414600805000003 23.980397755000002 53.270742093257638 16.777732060000002 20.184347825000007 35.919961309383964 49.459811692902598 53.795141762453135 54.263702075000005 42.068432210000005 43.82155804331925 42.935195328709405 52.60466124223624 13.236804675000002 47.218305682719553 83.137105385000012
decision_type=2 2 2 2 2 2 2 2 2 2 2 2 2 2 2 2 2
left_child=13 2 4 -4 14 -6 -3 10 -9 -10 12 -12 -8 15 -2 -1 -11
right_child=1 6 3 -5 5 -7 7 8 9 16 11 -13 -14 -15 -16 -17 -18
leaf_value=0.033236951606047546 -0.033400159490516931 0.020748521141763596 -0.05130056017956746 0.00048575081359385208 0.032398745194427744 -0.003912149197945693 -0.051638239331015315 0.037562040537286526 0.021826258992240475 -0.023065959007445642 0.023488802761138509 -0.029703736566488195 0.0047964869851258697 0.00023870554185684918 -0.0083804441277194781 0.020581943524712577 -0.012073962560061392
leaf_weight=4.8347923308610934 5.165787652134898 9.3198064863681775 8.04626616835594 4.9823386967182151 6.6662236005067808 6.6523095220327377 5.5646105408668536 6.356677874922755 8.4393258392810839 5.1583856642246229 9.1017663329839689 6.3650287091732016 4.9531572461128235 8.9643541723489744 8.167637035250662 4.9447619169950485 5.151387631893158
leaf_count=20 21 38 34 20 27 27 23 26 34 21 37 26 20 36 33 20 21
internal_value=0 -0.00264856 -0.0116277 -0.0314967 -0.00191484 0.0142623 0.00324938 5.72212e-05 0.00963077 0.000160975 -0.00919255 0.00159855 -0.0250613 0.0141169 -0.0180739 0.0268383 -0.0175737
internal_weight=0 100.091 39.6806 13.0286 26.652 13.3185 60.4101 51.0903 25.1058 18.7491 25.9846 15.4668 10.5178 18.7439 13.3334 9.77955 10.3098
internal_count=484 408 162 54 108 54 246 208 102 76 106 63 43 76 54 40 42
is_linear=0
shrinkage=0.05


Tree=13
num_leaves=18
num_cat=0
split_feature=1 1 1 2 1 1 2 2 2 1 1 2 2 2 2 2 1
split_gain=1.6061 1.92076 2.79354 3.03754 2.51979 1.59116 1.22162 1.63599 2.4178 2.76179 1.61575 3.82822 3.04901 1.20251 0.760823 0.144497 0.112139
threshold=11.014981230000002 30.414600805000003 23.980397755000002 53.270742093257638 16.777732060000002 20.184347825000007 35.919961309383964 49.459811692902598 52.819776363586634 54.263702075000005 42.068432210000005 43.82155804331925 42.935195328709405 52.60466124223624 52.37210121968041 47.218305682719553 83.137105385000012
decision_type=2 2 2 2 2 2 2 2 2 2 2 2 2 2 2 2 2
left_child=13 2 4 -4 14 -6 -3 10 -9 -10 12 -12 -8 15 -2 -1 -11
right_child=1 6 3 -5 5 -7 7 8 9 16 11 -13 -14 -15 -16 -17 -18
leaf_value=0.031776213108261793 -0.027970604302158537 0.019759880159332766 -0.049329475012003632 0.00046146271633578956 0.030875644233234686 -0.003717606403146367 -0.049481164328956037 0.039867494852688048 0.020484478104590559 -0.021921745599227722 0.022323349287333136 -0.028239890310484839 0.0045556379818410724 0.00022677067378457989 -0.0039319203546007136 0.019594714642416911 -0.011487596644808789
leaf_weight=4.8049628436565417 7.3472604304552096 9.2973775565624219 7.9518044441938383 4.9823498725891113 6.645836412906645 6.6504510194063187 5.5180206447839755 5.104662865400317 9.6813310384750384 5.1562971174716932 9.0981861203908903 6.3603311330080023 4.9542412012815475 8.9643587023019773 5.9629670977592468 4.9344626814126968 5.1438133120536804
leaf_count=20 30 38 34 20 27 27 23 21 39 21 37 26 20 36 24 20 21
internal_value=0 -0.00252372 -0.0110884 -0.0301496 -0.0018222 0.013573 0.00309107 5.33279e-05 0.00915655 0.00131081 -0.00875336 0.00151935 -0.0239173 0.0134414 -0.0172013 0.0256045 -0.016711
internal_weight=0 99.8549 39.5407 12.9342 26.6065 13.2963 60.3143 51.0169 25.0861 19.9814 25.9308 15.4585 10.4723 18.7038 13.3102 9.73943 10.3001
internal_count=484 408 162 54 108 54 246 208 102 81 106 63 43 76 54 40 42
is_linear=0
shrinkage=0.05


Tree=14
num_leaves=19
num_cat=0
split_feature=1 1 2 2 1 2 2 1 2 2 1 2 2 1 1 2 2 1
split_gain=1.45344 1.78419 1.60539 3.89153 3.56581 1.80791 3.22426 1.75587 1.12747 1.09268 1.07186 1.62369 2.56362 1.38495 2.46883 0.619887 0.133406 0.101034
threshold=11.014981230000002 13.236804675000002 36.653046753712054 40.520489585534719 39.848898380000001 45.605681228161266 48.464550284040577 32.387830285000007 34.131594961079664 52.60466124223624 16.973795500000005 52.728373044067474 49.994140778554588 54.263702075000005 38.663429235000009 60.621604496192937 47.218305682719553 83.137105385000012
decision_type=2 2 2 2 2 2 2 2 2 2 2 2 2 2 2 2 2 2
left_child=9 -2 8 4 -4 7 -7 -5 -3 16 -8 12 -12 14 15 -13 -1 -15
right_child=1 2 3 5 -6 6 10 -9 -10 -11 11 13 -14 17 -16 -17 -18 -19
leaf_value=0.030386642865348798 -0.031112235981157161 0.0030077033459797245 -0.053610740886072754 0.039769033168131858 0.00011535987710725688 -0.031000789024239757 -0.019008255328905384 0.0023857387378364622 0.031616537298631467 0.0002154300898854067 -0.0039932957146396149 0.0053810225431179257 0.043528288909824887 -0.020838864679339569 0.034442365625654614 -0.01597699967203917 0.018656630666887122 -0.010929641138105992
leaf_weight=4.774251341819765 5.1336861550807944 8.50455394387245 6.8176095187664014 5.3813033103942853 5.6459650546312332 8.573532357811926 5.1962493658065787 7.5451573133468628 5.7874138653278342 8.9643627405166608 5.3660567104816419 7.1664063930511528 6.0239509642124176 5.153108134865759 5.7011965215206137 6.4593798667192459 4.9237242639064789 5.1362797468900681
leaf_count=20 21 35 29 22 23 35 21 31 24 36 22 29 25 21 23 26 20 21
internal_value=0 -0.00240554 -0.000845362 -0.00359763 -0.029273 0.00112902 -0.00284015 0.0179485 0.0145926 0.0127993 0.00238544 0.00509641 0.0211399 -0.00107369 0.00681554 -0.00474387 0.0244312 -0.0158924
internal_weight=0 99.5918 94.4582 80.1662 12.4636 67.7026 54.7762 12.9265 14.292 18.6623 46.2026 41.0064 11.39 29.6164 19.327 13.6258 9.69798 10.2894
internal_count=484 408 387 328 52 276 223 53 59 76 188 167 47 120 78 55 40 42
is_linear=0
shrinkage=0.05


Tree=15
num_leaves=16
num_cat=0
split_feature=1 2 2 1 1 2 2 1 2 1 1 2 2 2 1
split_gain=1.32415 1.69231 2.99447 2.65818 1.15476 1.50938 3.08612 1.58321 0.869634 0.853995 3.24686 2.66968 1.71137 0.790389 0.743775
threshold=8.8218652800000026 36.653046753712054 40.520489585534719 39.848898380000001 13.877815225000001 45.605681228161266 48.464550284040577 32.387830285000007 34.131594961079664 54.263702075000005 44.931896820000013 55.661587956746196 53.270742093257638 49.66380919436309 27.378020655000004
decision_type=2 2 2 2 2 2 2 2 2 2 2 2 2 2 2
left_child=13 8 3 -3 -4 7 -7 -6 -2 10 12 -11 -8 -1 -14
right_child=1 2 4 -5 5 6 9 -9 -10 11 -12 -13 14 -15 -16
leaf_value=-0.0008481133751799514 0.003637113344543353 -0.044777550640864076 -0.016829667581457642 0.00010959123796045157 0.037758650410744166 -0.029519969669099873 -0.016997711228761096 0.0022664994451102659 0.027763736522828208 0.017795753302523309 0.044147452848288811 -0.026385825746488636 0.00052010803417220416 0.024899942470179293 0.021449523944937165
leaf_weight=4.7711356580257398 9.2174530625343305 7.9316999465227109 9.610692232847212 5.6459928601980209 5.3843314647674543 8.5539264827966672 8.9901915937662178 7.5450038015842438 6.2793477326631537 6.0725108385086042 5.1388668715953818 7.8250701725482941 9.4371369332075137 7.9416728168725967 7.7153091281652442
leaf_count=20 38 34 39 23 22 35 37 31 26 25 21 32 38 32 31
internal_value=0 -0.00184611 -0.00447795 -0.0261122 -0.00062674 0.00170923 -0.00198136 0.017047 0.0134133 0.00323263 0.00781463 -0.0070808 0.00067267 0.0152367 0.00993433
internal_weight=0 105.348 89.8507 13.5777 76.273 66.6623 53.733 12.9293 15.4968 45.1791 31.2815 13.8976 26.1426 12.7128 17.1524
internal_count=484 432 368 57 311 272 219 53 64 184 127 57 106 52 69
is_linear=0
shrinkage=0.05


Tree=16
num_leaves=19
num_cat=0
split_feature=1 2 2 1 2 2 2 2 2 2 2 2 1 2 2 1 1 2
split_gain=1.2519 1.66452 1.69634 1.47768 1.95012 4.77162 1.73749 2.14131 1.8284 1.6421 2.07416 1.4974 1.18197 1.00636 0.92953 0.675261 0.343845 0.136374
threshold=11.014981230000002 31.928168824784837 35.554194396418538 42.068432210000005 44.241408741201148 37.642817900222269 43.82155804331925 49.459811692902598 56.022862191095719 46.965417733938459 53.270742093257638 56.380318441858556 27.293876025000003 52.60466124223624 40.761002550722303 25.047504410000005 73.384534505000019 47.218305682719553
decision_type=2 2 2 2 2 2 2 2 2 2 2 2 2 2 2 2 2 2
left_child=13 -2 -3 4 5 -4 -5 -8 -9 -6 15 -12 -13 17 -7 -11 -10 -1
right_child=1 2 3 6 9 14 7 8 16 10 11 12 -14 -15 -16 -17 -18 -19
leaf_value=0.029142704627827778 0.024313912107175345 -0.030527481669367137 0.014028626792503263 0.024131482097459092 0.023247940778342226 -0.058456695301099697 -0.025981258782927858 0.025603355348435382 0.0026959501592659241 -0.010215993590310606 0.024272618434552043 -0.016529600195093943 0.013733840330899933 -0.00017428645813176541 -0.028174711474944731 -0.033551114523681959 -0.016057714276112914 0.017252368271402255
leaf_weight=4.7443971633911151 5.5711676031351081 5.5895268619060507 5.8687149882316616 9.5720504224300367 5.8662936091423026 4.8396887332200986 6.3445930331945446 7.9884383678436306 4.9089107513427717 6.372928708791731 6.4540046900510815 8.4337539672851545 5.2252911478281012 8.9566271603107435 5.3196425139904022 6.0370173454284668 4.8679052144289017 4.904161736369133
leaf_count=20 23 23 25 39 24 21 26 33 20 26 26 34 21 36 22 25 20 20
internal_value=0 -0.00223813 -0.00381704 -0.00212238 -0.0072169 -0.0218655 0.00610847 -0.001047 0.0078579 -0.0011009 -0.00549279 0.0044256 -0.00495227 0.0118952 -0.0426004 -0.0215677 -0.00664155 0.0230991
internal_weight=0 99.2599 93.6888 88.0992 54.4173 16.028 33.6819 24.1098 17.7653 38.3893 32.523 20.113 13.659 18.6052 10.1593 12.4099 9.77682 9.64856
internal_count=484 408 385 362 224 68 138 99 73 156 132 81 55 76 43 51 40 40
is_linear=0
shrinkage=0.05


Tree=17
num_leaves=18
num_cat=0
split_feature=1 1 1 2 1 1 2 2 1 1 1 2 1 2 2 2 2
split_gain=1.13285 1.52002 2.59941 2.62992 2.04806 1.3588 0.962532 1.3812 1.32166 1.11613 1.50102 1.74737 1.39065 1.12839 0.914599 0.728135 0.125834
threshold=11.014981230000002 30.414600805000003 23.980397755000002 53.270742093257638 16.777732060000002 20.184347825000007 35.919961309383964 40.354651837416732 34.556263140000006 44.931896820000013 90.334195560000012 56.022862191095719 58.307502985000006 50.957628338351704 52.60466124223624 47.502716455220998 47.218305682719553
decision_type=2 2 2 2 2 2 2 2 2 2 2 2 2 2 2 2 2
left_child=14 2 4 -4 15 -6 -3 -8 -9 13 11 12 -11 -10 16 -2 -1
right_child=1 6 3 -5 5 -7 7 8 9 10 -12 -13 -14 -15 -16 -17 -18
leaf_value=0.027876467053903783 5.8398912608067193e-05 0.017721510054216429 -0.046472453248950149 4.4958924262906633e-05 0.029116042780991155 -0.0029393546016976153 -0.018021150771635956 0.028171545514184871 -0.029327316375912373 0.010943647188534586 -0.01146357514919775 -0.0075505729353483684 0.04539707445127461 0.0033909256019840194 -0.00016557059475527257 -0.024064317335879055 0.016428846784260567
leaf_weight=4.712727904319765 5.0906274318695095 9.2377807646989805 7.7829080969095212 4.9843190461397171 6.6052022129297239 6.6185614019632339 8.6508420258760435 4.9547914564609519 5.3087836503982526 7.0623545795679146 8.3059645891189557 6.1298174858093253 5.0040316879749298 5.2327311635017395 8.9566303938627225 8.1149274706840497 4.8927863538265228
leaf_count=20 21 38 34 20 27 27 36 20 22 29 34 25 21 21 36 33 20
internal_value=0 -0.00213138 -0.00978623 -0.0283121 -0.000836944 0.0130722 0.00287878 0.000171652 0.003919 0.000675096 0.0061488 0.0141883 0.0252318 -0.0130862 0.0113281 -0.0147652 0.0220454
internal_weight=0 99.0836 39.1965 12.7672 26.4293 13.2238 59.8871 50.6493 41.9985 37.0437 26.5022 18.1962 12.0664 10.5415 18.5621 13.2056 9.60551
internal_count=484 408 162 54 108 54 246 208 172 152 109 75 50 43 76 54 40
is_linear=0
shrinkage=0.05


Tree=18
num_leaves=19
num_cat=0
split_feature=1 2 2 1 2 2 2 2 1 2 2 2 2 1 2 2 1 2
split_gain=1.02523 1.40073 1.56718 1.25916 1.70182 4.37802 1.61832 1.97976 1.67909 3.95109 1.4933 1.81976 1.41219 1.33729 0.856377 0.831267 0.59489 0.116125
threshold=11.014981230000002 31.928168824784837 35.554194396418538 42.068432210000005 44.241408741201148 37.642817900222269 43.82155804331925 49.459811692902598 54.263702075000005 55.661587956746196 46.965417733938459 53.270742093257638 60.621604496192937 23.414667440000002 40.761002550722303 52.60466124223624 25.047504410000005 47.218305682719553
decision_type=2 2 2 2 2 2 2 2 2 2 2 2 2 2 2 2 2 2
left_child=15 -2 -3 4 5 -4 -5 -8 -9 -10 -6 16 13 -13 -7 17 -12 -1
right_child=1 2 3 6 10 14 7 8 9 -11 11 12 -14 -15 -16 -17 -18 -19
leaf_value=0.026667513283495387 0.022414008323204341 -0.029208284709994061 0.014037169648460269 0.023179369705167707 0.022387175136769407 -0.055856604841220493 -0.025190123390716648 0.031620504506885444 0.033184354102700729 -0.024421424798241602 -0.0095184832391340159 -0.00042692649905884264 -0.011342722238252209 0.033520450210697043 -0.026571605460837734 -0.00015729196826450029 -0.031491793494307481 0.0156450219020027
leaf_weight=4.6808827966451663 5.5319135636091223 5.5661887973546973 5.8488865643739691 9.5429780930280668 5.8525172322988501 4.7316354662179929 6.3169035613536861 5.1003719121217754 4.8212043493986112 7.7800562530755997 6.3522986322641355 6.1783974617719668 8.4438430219888669 5.4689867794513702 5.2844946086406708 8.9566330611705762 5.9799408763647079 4.8813203126192093
leaf_count=20 23 23 25 39 24 21 26 21 20 32 26 25 34 22 22 36 25 20
internal_value=0 -0.00203143 -0.00348133 -0.00184853 -0.00656548 -0.0203346 0.00576081 -0.00115989 0.00741541 -0.00238163 -0.000858318 -0.00505419 0.00422617 0.0155129 -0.0404059 0.0107883 -0.0201734 0.0210407
internal_weight=0 98.8006 93.2687 87.7025 54.141 15.865 33.5615 24.0185 17.7016 12.6013 38.276 32.4235 20.0912 11.6474 10.0161 18.5188 12.3322 9.5622
internal_count=484 408 385 362 224 68 138 99 73 52 156 132 81 47 43 76 51 40
is_linear=0
shrinkage=0.05


Tree=19
num_leaves=19
num_cat=0
split_feature=1 1 2 2 1 2 2 1 2 1 2 2 1 1 2 2 1 2
split_gain=0.927843 1.30441 1.19831 3.03155 2.6629 1.29765 2.46536 1.10945 1.05526 0.802564 1.62896 2.0553 0.923682 1.9185 0.75555 0.498271 0.129994 0.107168
threshold=11.014981230000002 13.236804675000002 36.653046753712054 40.354651837416732 41.226969265000008 45.605681228161266 48.464550284040577 32.387830285000007 34.131594961079664 16.973795500000005 52.728373044067474 49.994140778554588 54.263702075000005 38.663429235000009 52.60466124223624 60.621604496192937 83.137105385000012 47.218305682719553
decision_type=2 2 2 2 2 2 2 2 2 2 2 2 2 2 2 2 2 2
left_child=14 -2 8 4 -4 7 -7 -5 -3 -8 11 -11 13 15 17 -12 -14 -1
right_child=1 2 3 5 -6 6 9 -9 -10 10 12 -13 16 -15 -16 -17 -18 -19
leaf_value=0.025512191859357942 -0.026691837055611733 0.0015083487356052621 -0.047757482304414123 0.031954414813529737 0.00096489707350686589 -0.027159765310021657 -0.016401531385183216 0.0028740942053488649 0.029266744094551239 -0.0018848681495569975 0.0037066624160156277 0.040913867629450741 -0.019482154612160366 0.029273006800952829 -0.000149427109567554 -0.015464825141848144 -0.0081891362778568882 0.014898747913302816
leaf_weight=4.6490405350923556 5.0483983010053626 8.4321843087673169 6.5205431878566724 5.5838739126920682 4.9206952452659607 8.5018596053123456 5.1697507202625266 7.9486907869577408 5.7643903046846381 5.31775054335594 7.132297828793531 5.9368355125188828 5.1030311882495862 5.6457607001066199 8.9566356986761075 6.4578758180141449 5.0900242179632187 4.869832381606102
leaf_count=20 21 35 29 23 20 35 21 33 24 22 29 25 21 23 36 26 21 20
internal_value=0 -0.0019356 -0.000599286 -0.00299351 -0.0268028 0.0010191 -0.00243013 0.0148734 0.0127794 0.0021551 0.00451313 0.0206916 -0.00167405 0.00477416 0.0102743 -0.00540338 -0.0138429 0.0200824
internal_weight=0 98.574 93.5256 79.329 11.4412 67.8878 54.3552 13.5326 14.1966 45.8533 40.6836 11.2546 29.429 19.2359 18.4755 13.5902 10.1931 9.51887
internal_count=484 408 387 328 49 279 223 56 59 188 167 47 120 78 76 55 42 40
is_linear=0
shrinkage=0.05


Tree=20
num_leaves=18
num_cat=0
split_feature=1 2 2 2 2 1 2 2 1 2 2 2 1 1 2 2 1
split_gain=0.857228 0.857466 1.9307 1.65509 1.74382 2.01633 1.24347 2.40905 1.88256 2.21501 1.06063 0.999907 2.18684 3.47917 2.00092 0.405834 0.388914
threshold=7.5997851500000007 31.928168824784837 35.554194396418538 36.955497602269723 40.520489585534719 39.848898380000001 46.965417733938459 49.706282159545445 21.896012200000005 43.82155804331925 52.728373044067474 55.316512332851168 54.263702075000005 27.378020655000004 60.171311277749901 48.464550284040577 27.877511710000004
decision_type=2 2 2 2 2 2 2 2 2 2 2 2 2 2 2 2 2
left_child=-1 -2 -3 -4 5 -5 8 15 -6 -10 -9 16 13 14 -13 -8 -12
right_child=1 2 3 4 6 -7 7 10 9 -11 11 12 -14 -15 -16 -17 -18
leaf_value=0.016281199576882271 0.017293184088676337 -0.028606034596151089 0.027669016308613809 -0.037354715051231877 0.03735054799538174 0.0034696009780422424 -0.03450883033491578 0.017595829427376097 0.022744774570726576 -0.017375707571383212 -0.0045507794163523315 0.016762101818986123 -0.019406391782133384 0.036034788039015636 -0.021435727566256366 -0.014979638834553303 -0.023770830243356467
leaf_weight=7.5537374615669242 5.9675937145948401 6.4873478561639777 4.9714234024286261 6.9082960486412031 5.259732753038409 5.3800314664840698 5.0999129265546781 8.8191443234682065 6.7133070826530439 7.0560199320316315 4.951617553830145 6.1804081499576622 7.9798554629087439 8.6074935346841794 7.6994792520999908 5.5609728842973709 5.6184187978506088
leaf_count=31 25 27 21 31 22 22 21 37 28 29 20 25 33 35 31 23 23
internal_value=0 -0.001135 -0.00219966 -0.000430066 -0.0019512 -0.0194812 0.000756835 -0.00274863 0.0119051 0.00218524 0.00186443 -0.00151634 0.00308074 0.0110605 -0.00442708 -0.0243219 -0.014767
internal_weight=0 109.261 103.293 96.8061 91.8347 12.2883 79.5464 60.5173 19.0291 13.7693 49.8564 41.0373 30.4672 22.4874 13.8799 10.6609 10.57
internal_count=484 453 428 401 380 53 327 248 79 57 204 167 124 91 56 44 43
is_linear=0
shrinkage=0.05


Tree=21
num_leaves=18
num_cat=0
split_feature=2 1 1 1 1 2 2 2 2 2 1 2 2 2 1 2 2
split_gain=0.801758 1.14018 2.06034 2.7914 2.688 2.03423 1.83829 2.3174 1.75104 4.23646 1.53959 1.39246 1.82461 1.04877 1.0044 0.43807 0.276788
threshold=68.136044558047061 58.307502985000006 21.896012200000005 29.936219020000003 32.387830285000007 51.707977348993047 36.838734597958073 42.935195328709405 43.82155804331925 49.241300351585984 8.1622314300000021 53.795141762453135 59.659440073875523 43.82155804331925 90.334195560000012 53.795141762453135 48.761305245098946
decision_type=2 2 2 2 2 2 2 2 2 2 2 2 2 2 2 2 2
left_child=1 2 8 5 -5 -4 -6 -8 -1 -10 -11 -12 -13 -3 -15 16 -9
right_child=-2 13 3 4 6 -7 7 15 9 10 11 12 -14 14 -16 -17 -18
leaf_value=-0.013994597578141588 0.019207932183249232 0.023411943197043719 -0.04488115040827912 0.032308872865290161 0.018161915797571367 -0.007216011641762993 -0.036508898976253083 -0.00559391898012895 0.043944163259469371 0.020939234554685562 -0.029544576380126798 0.02243561637418524 -0.018985616936651344 0.014172947628393388 -0.012896062922371774 -0.013246932995438294 0.010322688889714314
leaf_weight=9.0058211386203748 5.1864220798015586 8.2359940558671969 8.2374259382486326 4.7891111075878134 5.5726661384105709 6.3467695266008368 7.6925084739923504 5.338806167244913 7.4001425951719311 6.3976514786481884 5.1280779391527167 5.4349971860647184 5.2046564817428589 6.956373065710066 6.7542134672403336 7.3337192237377158 5.5927184075117111
leaf_count=38 21 34 36 20 23 26 33 22 31 26 21 22 21 29 28 30 23
internal_value=0 -0.000903239 -0.00340822 -0.0100128 -0.00259327 -0.02849 -0.0078945 -0.0134884 0.00530806 0.0111878 0.000251696 -0.00814213 0.00217337 0.00930943 0.000838006 -0.00379312 0.00254924
internal_weight=0 111.422 89.4751 50.9037 36.3195 14.5842 31.5304 25.9578 38.5713 29.5655 22.1654 15.7677 10.6397 21.9466 13.7106 18.2652 10.9315
internal_count=484 463 372 213 151 62 131 108 159 121 90 64 43 91 57 75 45
is_linear=0
shrinkage=0.05


Tree=22
num_leaves=18
num_cat=0
split_feature=2 1 1 1 1 2 2 2 2 2 1 2 2 2 1 2 2
split_gain=0.724455 1.03146 1.86601 2.54384 2.42768 1.87789 1.66271 2.11249 1.58266 3.8523 1.39211 1.25895 1.64665 0.95024 0.907622 0.395 0.249902
threshold=68.136044558047061 58.307502985000006 21.896012200000005 29.936219020000003 32.387830285000007 51.707977348993047 36.838734597958073 42.935195328709405 43.82155804331925 49.241300351585984 8.1622314300000021 53.795141762453135 59.659440073875523 43.82155804331925 90.334195560000012 53.795141762453135 48.761305245098946
decision_type=2 2 2 2 2 2 2 2 2 2 2 2 2 2 2 2 2
left_child=1 2 8 5 -5 -4 -6 -8 -1 -10 -11 -12 -13 -3 -15 16 -9
right_child=-2 13 3 4 6 -7 7 15 9 10 11 12 -14 14 -16 -17 -18
leaf_value=-0.013290305916880333 0.018266381230617572 0.022309476089923227 -0.043145248118014914 0.030699863255813011 0.017295623385294272 -0.0068592659467522077 -0.034908718112112581 -0.0053180636295709141 0.042001855037076846 0.019937370749365149 -0.028110354847706243 0.021297178233392191 -0.018055171572663533 0.013471034549429257 -0.012277629054034379 -0.012574629426657522 0.0098096284630615205
leaf_weight=9.008830174803732 5.1812043488025656 8.2114766389131564 8.1428404748439771 4.7881236970424643 5.5595383048057583 6.3431127667427054 7.6441163718700436 5.3350483924150485 7.356351405382159 6.3835453987121609 5.1204244047403327 5.4391334205865842 5.1993614733219147 6.9529820084571821 6.7400763928890228 7.3393749445676795 5.5910095572471619
leaf_count=38 21 34 36 20 23 26 33 22 31 26 21 22 21 29 28 30 23
internal_value=0 -0.000860898 -0.00324702 -0.00954505 -0.00246881 -0.0272563 -0.00751553 -0.0128394 0.00505217 0.0106539 0.000239223 -0.00774001 0.00206447 0.00886143 0.000796878 -0.00360333 0.00242298
internal_weight=0 111.155 89.2508 50.7432 36.2572 14.486 31.4691 25.9095 38.5076 29.4988 22.1425 15.7589 10.6385 21.9045 13.6931 18.2654 10.9261
internal_count=484 463 372 213 151 62 131 108 159 121 90 64 43 91 57 75 45
is_linear=0
shrinkage=0.05


Tree=23
num_leaves=18
num_cat=0
split_feature=0 0 0 1 0 1 0 0 0 0 1 1 0 0 0 0 1
split_gain=2.43222 2.61541 2.23807 4.3274 2.34999 2.17565 1.7339 1.71582 2.07769 2.03174 1.93956 1.56752 1.43317 4.01044 1.91098 0.762777 0.246124
threshold=99887.000000000015 99565.000000000015 100440.00000000001 25.517447265000005 100975.00000000001 81.145466495000008 102330.00000000001 98487.000000000015 95256.000000000015 92022.500000000015 21.896012200000005 38.663429235000009 93102.000000000015 93900.500000000015 92447.500000000015 91446.000000000015 8.9763002000000025
decision_type=2 2 2 2 2 2 2 2 2 2 2 2 2 2 2 2 2
left_child=1 5 -2 -4 -5 7 -6 8 9 15 -10 -12 14 -14 16 -1 -11
right_child=2 -3 3 4 6 -7 -8 -9 10 12 11 -13 13 -15 -16 -17 -18
leaf_value=-0.0014618543469882084 -0.035541560169119427 0.039826670342501681 0.031664533580168588 0.012348833693820997 -0.04310632698063005 0.028297617915192391 -0.0049001895178539508 -0.021608577465833129 0.039903590416693002 0.00086114076335106838 -0.01016998726596507 0.021801137307644686 0.035368725074906092 -0.025900709151515253 -0.040580241133227196 0.021281137367468252 -0.014557111046153643
leaf_weight=6.7126787006855002 7.5993882864713695 4.9038749784231177 6.1653819531202343 4.8905037641525295 7.7668606191873533 7.264492839574813 4.8078175485134125 8.4304075241088849 5.783944487571719 5.1252688318491035 7.6153688430786115 7.7208328545093536 4.99027471244335 5.7462339550256729 7.1170992851257315 8.1785739213228208 5.2291699349880219
leaf_count=28 31 21 25 20 32 30 20 36 24 21 32 32 21 25 30 34 22
internal_value=0 0.00438304 -0.0119385 -0.00434793 -0.0170607 0.00220807 -0.0284985 -0.000400708 0.00238336 -0.00391229 0.0152307 0.0059255 -0.0117999 0.00257701 -0.0206348 0.0110291 -0.00692534
internal_weight=0 84.8182 31.23 23.6306 17.4652 79.9143 12.5747 72.6499 64.2194 43.0993 21.1201 15.3362 28.208 10.7365 17.4715 14.8913 10.3544
internal_count=484 356 128 97 72 335 52 305 269 181 88 64 119 46 73 62 43
is_linear=0
shrinkage=0.05


Tree=24
num_leaves=19
num_cat=0
split_feature=2 2 2 2 1 2 2 1 1 2 2 2 2 1 1 2 2 1
split_gain=0.751746 2.99136 2.4474 2.14049 2.78198 2.06193 2.04987 1.16039 0.929636 1.57012 0.910576 0.693478 3.14422 2.73094 2.13925 0.947981 0.657842 0.137049
threshold=49.66380919436309 52.60466124223624 46.965417733938459 44.241408741201148 78.381628150000026 50.957628338351704 53.795141762453135 54.263702075000005 38.663429235000009 56.794239488937443 48.306972919902428 36.653046753712054 34.131594961079664 42.068432210000005 32.387830285000007 40.354651837416732 62.092711015165925 83.137105385000012
decision_type=2 2 2 2 2 2 2 2 2 2 2 2 2 2 2 2 2 2
left_child=2 5 3 4 11 -2 -3 8 9 -8 -4 12 -1 14 15 -13 -11 -9
right_child=1 6 10 -5 -6 -7 7 17 -10 16 -12 13 -14 -15 -16 -17 -18 -19
leaf_value=-0.022856383035062145 0.0074378964389753451 -0.029103165051089078 -0.04050512070806811 0.022623856229902276 0.030524408318820979 0.051446116078244453 0.024315324933731102 -0.017690821275676415 0.027699242373481425 -0.014848820443487096 -0.012164141779748068 -0.028397625627331526 0.02590900493399953 0.012048661515084208 -0.054892024097749549 0.0024892019911876219 0.0047139162441543073 -0.0060598838974626141
leaf_weight=7.1145611852407438 5.711114823818205 5.8411114662885657 5.0562673658132535 9.2815226763486844 5.0687300115823737 4.9847251027822495 6.6828581094741883 5.0880011320114118 4.8641226291656485 7.9058949798345592 6.4490284472703934 5.2430750876665133 6.1737987101078033 6.5493751764297476 4.630956530570983 4.721209928393364 9.415062949061392 5.0430279970169067
leaf_count=30 24 24 21 39 21 21 27 21 20 32 27 24 26 27 21 20 38 21
internal_value=0 0.00418782 -0.00387527 0.0010171 -0.00405973 0.0279476 -0.00147968 0.00265766 0.00776699 0.00372793 -0.0246192 -0.00915072 -0.000199886 -0.0147759 -0.0268129 -0.013763 -0.00421521 -0.0119012
internal_weight=0 55.5359 60.2885 48.7832 39.5017 10.6958 44.8401 38.999 28.8679 24.0038 11.5053 34.433 13.2884 21.1446 14.5952 9.96429 17.321 10.131
internal_count=484 228 256 208 169 45 183 159 117 97 48 148 56 92 65 44 70 42
is_linear=0
shrinkage=0.05


Tree=25
num_leaves=19
num_cat=0
split_feature=2 2 2 2 1 2 2 1 1 2 2 2 2 1 1 2 2 1
split_gain=0.680011 2.7041 2.21113 1.93358 2.52107 1.86832 1.85292 1.04843 0.843635 1.41791 0.824685 0.633354 2.83268 2.48746 1.99618 0.863904 0.594091 0.123872
threshold=49.66380919436309 52.60466124223624 46.965417733938459 44.241408741201148 78.381628150000026 50.957628338351704 53.795141762453135 54.263702075000005 38.663429235000009 56.794239488937443 48.306972919902428 36.653046753712054 34.131594961079664 42.068432210000005 32.387830285000007 40.354651837416732 62.092711015165925 83.137105385000012
decision_type=2 2 2 2 2 2 2 2 2 2 2 2 2 2 2 2 2 2
left_child=2 5 3 4 11 -2 -3 8 9 -8 -4 12 -1 14 15 -13 -11 -9
right_child=1 6 10 -5 -6 -7 7 17 -10 16 -12 13 -14 -15 -16 -17 -18 -19
leaf_value=-0.021639646056659162 0.0070708725123374352 -0.027690812984069647 -0.038556168833888654 0.021501265561747977 0.029122880432699262 0.04899579227056694 0.02311352571742192 -0.01682737620011306 0.026414516097941473 -0.014115717471649927 -0.011565523447486348 -0.027168353408519294 0.024608879906257444 0.011455669003375158 -0.053123182003793248 0.0023646001066985525 0.0044783732176458483 -0.0057633048244868298
leaf_weight=7.1382312923669797 5.7072809338569623 5.8323034048080435 5.0465013235807401 9.2778957337141019 5.0475729256868354 4.9726084619760513 6.6789151132106843 5.0817826688289625 4.8461287766695014 7.9007950723171261 6.4438168406486511 5.2072216123342532 6.1749338805675507 6.5441136211156836 4.5480192899703971 4.7214836925268173 9.4147502928972226 5.0375593900680542
leaf_count=30 24 24 21 39 21 21 27 21 20 32 27 24 26 27 21 20 38 21
internal_value=0 0.00398333 -0.00369194 0.000966523 -0.00387125 0.0265913 -0.00140713 0.00252754 0.00738608 0.00354293 -0.0234197 -0.00872185 -0.00018858 -0.0141262 -0.0256904 -0.0131243 -0.0040058 -0.0113195
internal_weight=0 55.4721 60.1498 48.6595 39.3816 10.6799 44.7922 38.9599 28.8406 23.9945 11.4903 34.334 13.3132 21.0208 14.4767 9.92871 17.3155 10.1193
internal_count=484 228 256 208 169 45 183 159 117 97 48 148 56 92 65 44 70 42
is_linear=0
shrinkage=0.05


Tree=26
num_leaves=20
num_cat=0
split_feature=0 0 0 0 1 1 1 1 1 0 1 0 0 0 1 1 1 0 1
split_gain=2.20291 2.4089 3.26391 1.82531 3.05026 2.06712 4.05228 2.40207 3.55932 1.95377 3.93718 2.03067 1.6841 1.5962 1.44061 0.692114 1.28721 0.469071 0.227344
threshold=92022.500000000015 93102.000000000015 93993.500000000015 99887.000000000015 17.466775230000003 49.353730235000008 68.459801060000004 31.950062175000003 25.906099740000005 100440.00000000001 25.517447265000005 100975.00000000001 102330.00000000001 92447.500000000015 39.173492810000006 16.973795500000005 37.995178770000003 97955.500000000015 8.9763002000000025
decision_type=2 2 2 2 2 2 2 2 2 2 2 2 2 2 2 2 2 2 2
left_child=15 13 -3 4 17 7 -7 8 -6 -5 -11 -12 -13 18 -9 -1 -17 -4 -2
right_child=1 2 3 9 5 6 -8 14 -10 10 11 12 -14 -15 -16 16 -18 -19 -20
leaf_value=0.0015881108468522493 0.00017563538047094275 0.036568161608961945 0.017980671274363841 -0.033416889873885171 -0.023632209089460343 0.050566342165649397 -0.011213249659853005 -0.048523241896233381 0.033953682280224599 0.030072450840768917 0.010883840627842341 -0.041539535313486031 -0.0037943099239967312 -0.038232564870730547 -0.01294704270205658 0.041583044841150288 0.0086938279133049572 0.039975644224984536 -0.014662935708506471
leaf_weight=5.5267748832702663 5.0997350066900271 5.8791174292564383 4.7481729686260206 7.5924702286720303 5.204618379473688 4.660493075847624 6.1660424172878265 4.5830145329236966 5.5391314476728439 6.1681185811758068 4.895643517374995 7.7247783541679365 4.7861550003290176 7.022724822163581 7.5059400051832199 5.2481357604265195 6.8684283941984177 4.9520938992500305 5.2270659208297729
leaf_count=23 21 25 20 31 22 20 25 20 24 25 20 32 20 30 32 22 29 21 22
internal_value=0 -0.00294478 0.000701166 -0.00212824 0.00450596 -0.00261332 0.015381 -0.0111456 0.00605722 -0.0113577 -0.00425329 -0.0164168 -0.0270998 -0.0198418 -0.0264343 0.0162511 0.0229394 0.0292093 -0.00733513
internal_weight=0 97.7553 80.4058 74.5267 43.3595 33.6592 10.8265 22.8327 10.7437 31.1672 23.5747 17.4066 12.5109 17.3495 12.089 17.6433 12.1166 9.70027 10.3268
internal_count=484 410 337 312 184 143 45 98 46 128 97 72 52 73 52 74 51 41 43
is_linear=0
shrinkage=0.05


Tree=27
num_leaves=19
num_cat=0
split_feature=2 2 2 2 1 2 2 1 1 2 2 2 2 2 2 2 2 1
split_gain=0.682948 2.36483 1.95671 1.76007 2.34722 1.67962 1.65517 0.920717 0.779901 1.26731 0.75175 0.587243 1.63539 1.5034 1.80457 0.683717 0.473248 0.113226
threshold=49.66380919436309 52.60466124223624 46.965417733938459 44.241408741201148 78.381628150000026 53.795141762453135 50.957628338351704 54.263702075000005 38.663429235000009 56.794239488937443 48.306972919902428 40.520489585534719 38.543301823138862 35.554194396418538 32.259266011205938 36.955497602269723 62.092711015165925 83.137105385000012
decision_type=2 2 2 2 2 2 2 2 2 2 2 2 2 2 2 2 2 2
left_child=2 6 3 4 11 -3 -2 8 9 -7 -4 12 13 14 -1 -15 -11 -9
right_child=1 5 10 -5 -6 7 -8 17 -10 16 -12 -13 -14 15 -16 -17 -18 -19
leaf_value=0.0036414628366944011 0.0067918640440675013 -0.026111289355118923 -0.036791611152277998 0.020304456908036207 0.027973492969670329 0.022086464054156929 0.046368410350188356 -0.0155629729996346 0.025620828692209559 -0.012616090749737172 -0.010965129308475149 0.0030214465531813155 -0.034197908515569544 0.022708586880801778 -0.038941541639443938 -0.0040452573318499581 0.0039979755162250627 -0.0049681004849904589
leaf_weight=4.7419158369302803 5.6778112649917585 5.8131112307310095 5.0244607925415021 9.2470196187496168 5.0212004333734503 6.668576702475554 4.9407360404729843 5.0690647065639478 4.8169557750225058 7.8754259049892452 6.4150871932506561 8.2058020830154401 6.4285933226346961 4.6772780865430814 5.2341804206371307 4.8792063444852829 9.404919892549513 5.017995610833168
leaf_count=20 24 24 21 39 21 27 21 21 20 32 27 35 29 20 22 22 38 21
internal_value=0 0.00399737 -0.00370971 0.000683023 -0.00394694 -0.00104474 0.0252066 0.00270568 0.00726358 0.0035713 -0.0223086 -0.00863799 -0.0123233 -0.00512389 -0.0187007 0.00904901 -0.0035738 -0.0102924
internal_weight=0 55.2846 59.8747 48.4352 39.1882 44.666 10.6185 38.8529 28.7659 23.9489 11.4395 34.167 25.9612 19.5326 9.9761 9.55648 17.2803 10.0871
internal_count=484 228 256 208 169 183 45 159 117 97 48 148 113 84 42 42 70 42
is_linear=0
shrinkage=0.05


Tree=28
num_leaves=19
num_cat=0
split_feature=2 2 2 2 1 2 2 1 1 2 2 2 2 1 1 2 2 1
split_gain=0.617499 2.13995 1.76929 1.59 2.12626 1.51912 1.50513 0.83198 0.707981 1.14496 0.682534 0.553958 2.54464 2.27918 1.7624 0.772995 0.427462 0.102399
threshold=49.66380919436309 52.60466124223624 46.965417733938459 44.241408741201148 78.381628150000026 53.795141762453135 50.957628338351704 54.263702075000005 38.663429235000009 56.794239488937443 48.306972919902428 36.653046753712054 34.131594961079664 42.068432210000005 32.387830285000007 40.354651837416732 62.092711015165925 83.137105385000012
decision_type=2 2 2 2 2 2 2 2 2 2 2 2 2 2 2 2 2 2
left_child=2 6 3 4 11 -3 -2 8 9 -7 -4 12 -1 14 15 -13 -11 -9
right_child=1 5 10 -5 -6 7 -8 17 -10 16 -12 13 -14 -15 -16 -17 -18 -19
leaf_value=-0.020560648450489789 0.0064565499316612488 -0.024858912123456367 -0.035059990451530548 0.019303984374329994 0.026698910609351586 0.021003916108319351 0.044246188926443823 -0.014805666216148356 0.024438593445878114 -0.011995355863949397 -0.010425870431946678 -0.026155287106898951 0.023288566145815315 0.011194608026931355 -0.050800012765846128 0.0018252072162463378 0.0037982929725427837 -0.0047242446831629705
leaf_weight=7.1434575468301755 5.6741447448730451 5.8009839951992026 5.0093717724084836 9.2401280701160413 4.9984509944915763 6.6618334203958574 4.9193683862686157 5.0621095299720746 4.7979719042778006 7.8689815700054195 6.4096912294626236 5.1607203334569949 6.1631140261888504 6.5160693526267996 4.4029341638088217 4.7313032597303391 9.4043966829776746 5.0132845938205719
leaf_count=30 24 24 21 39 21 27 21 21 20 32 27 24 26 27 21 20 38 21
internal_value=0 0.0038036 -0.00353062 0.00064959 -0.00375702 -0.000993696 0.0240051 0.0025736 0.00690873 0.00339475 -0.0212325 -0.00821901 -0.000251307 -0.0133136 -0.0244851 -0.0127724 -0.00339659 -0.00978938
internal_weight=0 55.2031 59.7752 48.3562 39.116 44.6096 10.5935 38.8086 28.7332 23.9352 11.4191 34.1176 13.3066 20.811 14.295 9.89202 17.2734 10.0754
internal_count=484 228 256 208 169 183 45 159 117 97 48 148 56 92 65 44 70 42
is_linear=0
shrinkage=0.05


Tree=29
num_leaves=18
num_cat=0
split_feature=1 1 2 2 2 2 1 1 1 2 2 1 1 2 2 2 2
split_gain=0.605691 1.28935 0.850492 1.28215 1.00498 3.11888 1.20999 1.63402 1.19773 1.24925 2.21677 1.22852 1.21736 1.21188 0.61937 0.551782 0.109754
threshold=11.014981230000002 13.236804675000002 31.928168824784837 35.554194396418538 38.543301823138862 40.354651837416732 120.85055659500001 81.145466495000008 58.307502985000006 55.316512332851168 52.728373044067474 23.980397755000002 45.732826685000013 60.621604496192937 45.605681228161266 52.60466124223624 47.218305682719553
decision_type=2 2 2 2 2 2 2 2 2 2 2 2 2 2 2 2 2
left_child=15 -2 -3 -4 -5 -6 7 8 9 10 11 -7 14 -11 -13 16 -1
right_child=1 2 3 4 5 6 -8 -9 -10 13 -12 12 -14 -15 -16 -17 -18
leaf_value=0.022465376790611755 -0.026298067405372952 0.018975884097981205 -0.025376629971036502 0.016003556082409994 -0.039100807757491737 0.014921215027242625 0.025259389643188319 -0.026249262157087384 0.023713381899906114 0.023314524694350868 -0.033661178021683294 -0.0016951228595937498 0.012507793532211431 -0.0027978409883638554 -0.024624222987113701 -0.00054049519440524591 0.011591692700094506
leaf_weight=4.5215075761079806 5.0047330558300009 5.420050621032714 5.2548644542694083 8.8578142970800382 5.2107922732830039 8.9225161671638507 4.7956008464097968 5.7287017852067939 5.6046985834836951 8.7359763979911822 6.0852371007204047 4.6633966416120547 5.2263071089982978 9.0425832420587522 7.9937099367380142 8.8923449367284757 4.7675386220216751
leaf_count=20 21 23 22 39 24 37 20 24 24 36 25 20 22 37 34 36 20
internal_value=0 -0.00158616 -0.000235131 -0.00144417 0.000110997 -0.00184393 0.00106238 -0.000809124 0.00178067 -0.000645364 -0.0064174 -0.000232768 -0.0077935 0.0100332 -0.0161762 0.00836212 0.0168845
internal_weight=0 96.547 91.5422 86.1222 80.8673 72.0095 66.7987 62.0031 56.2744 50.6697 32.8912 26.8059 17.8834 17.7786 12.6571 18.1814 9.28905
internal_count=484 408 387 364 342 303 279 259 235 211 138 113 76 73 54 76 40
is_linear=0
shrinkage=0.05


Tree=30
num_leaves=19
num_cat=0
split_feature=2 2 2 2 1 2 2 1 2 2 2 2 2 2 2 1 1 2
split_gain=0.555338 1.88057 1.60719 1.44958 1.92269 1.38608 1.27855 0.775904 1.03497 0.917311 0.902987 0.832197 0.621395 0.528567 2.30194 2.10513 1.62436 0.690451
threshold=49.66380919436309 52.60466124223624 46.965417733938459 44.241408741201148 78.381628150000026 50.957628338351704 53.795141762453135 47.250081125000008 60.621604496192937 59.250273069591948 57.199071783531984 64.11717516567542 48.306972919902428 34.131594961079664 36.653046753712054 42.068432210000005 32.387830285000007 40.354651837416732
decision_type=2 2 2 2 2 2 2 2 2 2 2 2 2 2 2 2 2 2
left_child=2 5 3 4 13 -2 -3 8 10 -9 -8 -10 -4 -1 -15 16 17 -16
right_child=1 6 12 -5 -6 -7 7 9 11 -11 -12 -13 -14 14 15 -17 -18 -19
leaf_value=-0.019930460159145971 0.0057597808884803751 -0.022846007915461049 -0.033494590220233919 0.018474338860373779 0.025471001382229366 0.04211377966411093 0.0066366270683562659 -0.021398141623642356 -0.01890982977496021 0.0057661561413989816 0.032196659837885722 0.008265497119941484 -0.0099387409941257571 0.022234471834280442 -0.02498860193446667 0.010919949744642703 -0.049087774658719871 0.0015411712712764623
leaf_weight=7.1393996626138678 5.6622034013271314 5.7704778909683219 4.9849470853805524 9.2088079899549466 4.9654137939214698 4.8831084370613098 9.5582471638917941 6.2607803940772992 5.1837733387947065 6.1712534576654434 5.4118328243494025 6.1707921326160431 6.3865939229726791 6.1480826735496548 5.1044485270977038 6.5021913200616828 4.3005276620388022 4.7204832881689072
leaf_count=30 24 24 21 39 21 21 39 26 21 26 22 25 27 26 24 27 21 20
internal_value=0 0.00360797 -0.0033604 0.000636957 -0.0035878 0.0225939 -0.000888428 0.00238083 0.00724256 -0.0079138 0.0158768 -0.00414103 -0.0202649 -0.00784222 -0.00461905 -0.0126228 -0.0234599 -0.0122421
internal_weight=0 55.0725 59.4609 48.0894 38.8805 10.5453 44.5272 38.7567 26.3246 12.432 14.9701 11.3546 11.3715 33.9151 26.7757 20.6277 14.1255 9.82493
internal_count=484 228 256 208 169 45 183 159 107 52 61 46 48 148 118 92 65 44
is_linear=0
shrinkage=0.05


Tree=31
num_leaves=19
num_cat=0
split_feature=1 1 1 2 1 2 2 1 1 1 1 2 2 2 1 2 2 2
split_gain=0.561482 1.29117 1.94125 2.07006 1.92948 1.00955 1.8766 1.36919 1.2854 0.994575 0.969788 0.921975 0.761139 0.689695 1.50871 1.21963 0.497386 0.108567
threshold=11.014981230000002 30.414600805000003 23.980397755000002 53.270742093257638 16.777732060000002 65.883671549024129 59.250273069591948 109.80511162000001 78.381628150000026 36.815853095000008 20.184347825000007 42.935195328709405 52.37210121968041 37.940656987230518 42.068432210000005 47.218305682719553 52.60466124223624 47.218305682719553
decision_type=2 2 2 2 2 2 2 2 2 2 2 2 2 2 2 2 2 2
left_child=16 2 4 -4 12 6 7 8 9 11 -6 -3 -2 -11 -15 -16 17 -1
right_child=1 5 3 -5 10 -7 -8 -9 -10 13 -12 -13 -14 14 15 -17 -18 -19
leaf_value=0.021756384377834132 -0.025534383258394657 -0.00087628330461840271 -0.04179301177998325 -1.1608189370827238e-05 0.026500095408103209 -0.018658787070271434 0.035028644213649818 -0.021980465820685864 0.025355254591080359 -0.017763199775995522 -0.00092036276279299173 0.030657675765558307 -0.0012222307265516508 -0.020229157185446166 0.02583793652366902 -0.0030587818406202509 -0.00038019332011084308 0.010911865199472234
leaf_weight=4.4928590059280413 7.0886297225952166 4.4433658868074399 7.3729899376630765 4.9580725431442261 6.4582613557577115 4.8524952530860892 4.7868504822254172 5.2184357792139044 6.6486244946718207 6.3769311755895641 6.4399072825908661 4.8458315879106522 5.897661104798317 5.9545565992593792 6.4830643236637107 8.3603503108024579 8.8923869431018812 4.7456749379634857
leaf_count=20 30 20 34 20 27 20 20 22 28 27 27 20 24 26 27 36 36 20
internal_value=0 -0.00153149 -0.00866642 -0.0249935 -0.000888355 0.00317202 0.00516633 0.00220869 0.00513658 0.00145004 0.0128094 0.0155738 -0.0144931 -0.00337789 0.00103283 0.00956226 0.00806091 0.0161857
internal_weight=0 96.186 38.2155 12.3311 25.8845 57.9705 53.118 48.3312 43.1127 36.4641 12.8982 9.2892 12.9863 27.1749 20.798 14.8434 18.1309 9.23853
internal_count=484 408 162 54 108 246 226 206 184 156 54 40 54 116 89 63 76 40
is_linear=0
shrinkage=0.05


Tree=32
num_leaves=20
num_cat=0
split_feature=2 2 2 1 2 1 1 1 2 2 2 2 2 1 2 2 1 2 2
split_gain=0.541773 1.77817 1.02442 1.59996 1.39326 0.923649 0.892972 2.00158 2.11579 1.32212 2.28386 2.08807 2.01624 1.11901 1.06829 1.29763 0.759455 0.315384 0.28528
threshold=31.928168824784837 35.554194396418538 36.955497602269723 8.6865871600000002 52.60466124223624 120.85055659500001 66.034484395000007 42.068432210000005 44.241408741201148 46.965417733938459 53.270742093257638 60.621604496192937 49.063171025743124 31.950062175000003 47.218305682719553 55.478131537569368 23.414667440000002 54.510063168227923 66.397904587362817
decision_type=2 2 2 2 2 2 2 2 2 2 2 2 2 2 2 2 2 2 2
left_child=-1 -2 -3 4 -4 6 7 8 13 -10 12 16 -11 -5 -9 -16 -12 -8 -13
right_child=1 2 3 5 -6 -7 17 14 9 10 11 18 -14 -15 15 -17 -18 -19 -20
leaf_value=0.014796079953110289 -0.026387247791251206 0.023222754147569621 0.034829603932580361 -0.014279574267675357 -0.00095674064643041048 0.018123920345984215 -0.0093246439980628291 0.029671587138034267 0.020037650866031972 0.0046957279407883702 0.0074512492544613219 -0.021618715475159665 -0.036096505405307087 -0.046894254460424237 -0.012901111361239415 0.022748763493514124 0.031626712628877778 -0.02707139976981341 -0.0046151558883636649
leaf_weight=5.8606128543615332 6.3948903679847708 4.8485777229070655 5.6887177824974042 7.7239654362201673 5.2114235013723373 5.0544667392969123 5.1967736631631833 6.2227920144796398 6.1572714745998374 4.6974656134843817 8.1008243858814257 4.9257467389106733 8.5294638872146589 3.9877419024705887 5.5739486664533597 4.7090314626693726 5.4234850853681555 4.8304845094680786 4.9414433389902115
leaf_count=25 27 21 25 35 21 21 22 26 26 20 33 20 36 20 24 20 22 20 20
internal_value=0 -0.00081236 0.000793835 -0.00032757 0.0177199 -0.00261303 -0.0039067 -0.00193394 -0.00655475 -0.00139926 -0.0050038 0.00438597 -0.0216094 -0.0253846 0.0133199 0.00342454 0.017146 -0.0178739 -0.0131034
internal_weight=0 108.219 101.824 96.975 10.9001 86.0749 81.0204 70.9932 54.4874 42.7757 36.6184 23.3915 13.2269 11.7117 16.5058 10.283 13.5243 10.0273 9.86719
internal_count=484 459 432 411 46 365 344 302 232 177 151 95 56 55 70 44 55 42 40
is_linear=0
shrinkage=0.05


Tree=33
num_leaves=18
num_cat=0
split_feature=2 2 2 2 1 1 2 2 1 2 1 1 1 1 1 1 2
split_gain=0.511148 1.84746 1.48076 1.30288 1.16758 3.01206 2.49729 1.07302 0.764159 1.32667 1.78468 2.42314 1.10723 0.740486 1.49103 0.826555 0.630835
threshold=49.66380919436309 52.60466124223624 46.965417733938459 50.957628338351704 20.184347825000007 28.126755390000003 40.761002550722303 53.795141762453135 10.104288795 55.316512332851168 54.263702075000005 27.378020655000004 18.040288975000003 34.229637510000011 44.931896820000013 80.391342480000006 48.306972919902428
decision_type=2 2 2 2 2 2 2 2 2 2 2 2 2 2 2 2 2
left_child=2 3 4 -2 6 -6 -1 -3 -9 -10 11 12 -11 -7 -15 -16 -4
right_child=1 7 16 -5 5 13 -8 8 9 10 -12 -13 -14 14 15 -17 -18
leaf_value=-0.0049219189942108117 0.0060226203450940673 -0.021199016737049249 -0.032872796718073978 0.041404115660389429 -0.034991901956181445 -0.011130165789256958 0.04261594133135465 0.019849515816114473 -0.022848854334501758 0.011946363954599609 -0.016437146472986015 0.032043730215747093 -0.018997334816478292 0.025759127244270721 -0.010829452760077983 0.013078299428017838 -0.009068487962267037
leaf_weight=6.7438479512929899 5.6364225000143033 5.7233102172613135 4.9600754380226117 4.8328670561313629 6.3700463324785224 7.1590733826160458 4.6797787398099899 5.1898406296968451 5.6552422642707816 5.9049210101366096 7.8831103593111029 8.4291006177663785 5.6637230664491653 7.3858872801065472 9.3733945637941343 5.8849985450506201 6.3416226953268051
leaf_count=29 24 24 21 21 29 32 21 21 23 24 33 35 23 33 39 25 27
internal_value=0 0.00345947 -0.00324609 0.0223555 0.000617052 -0.00378374 0.0145523 -0.000991195 0.00199532 -0.000767684 0.00371117 0.0116536 -0.00320291 0.00288657 0.00731801 -0.00160849 -0.0195157
internal_weight=0 54.9185 58.8987 10.4693 47.597 36.1734 11.4236 44.4492 38.7259 33.5361 27.8809 19.9977 11.5686 29.8034 22.6443 15.2584 11.3017
internal_count=484 228 256 45 208 158 50 183 159 138 115 82 47 129 97 64 48
is_linear=0
shrinkage=0.05


Tree=34
num_leaves=20
num_cat=0
split_feature=0 0 0 1 0 0 0 0 0 0 1 1 0 0 1 1 1 1 1
split_gain=1.91046 2.42706 1.82434 3.70394 1.68091 1.65541 1.54346 3.03207 2.42885 1.39216 1.37416 3.12808 1.74755 2.86175 1.54055 0.673542 1.29035 0.62112 0.132069
threshold=99887.000000000015 99565.000000000015 100440.00000000001 25.517447265000005 100975.00000000001 102330.00000000001 92022.500000000015 93102.000000000015 93993.500000000015 92447.500000000015 31.950062175000003 39.173492810000006 96422.000000000015 97873.500000000015 62.931189425000007 16.973795500000005 37.995178770000003 47.250081125000008 8.9763002000000025
decision_type=2 2 2 2 2 2 2 2 2 2 2 2 2 2 2 2 2 2 2
left_child=1 6 -2 -4 -5 -6 15 9 -9 18 12 -12 -10 -14 17 -1 -17 -13 -8
right_child=2 -3 3 4 5 -7 7 8 10 -11 11 14 13 -15 -16 16 -18 -19 -20
leaf_value=0.00047641507597597068 -0.031970694977963503 0.038724265600194041 0.029653200482472192 0.0093216652533193844 -0.039793253472894898 -0.002230839173894216 -0.0022527300597284089 0.03534318803125671 -0.012600092079804288 -0.037177823199970796 -0.045582351731101985 0.0023325960378021791 0.048464724918330898 -0.0010403333065035212 -0.017363763788045012 0.040585703148172864 0.0072954816107394281 0.027389280101707759 -0.013658416105450566
leaf_weight=5.4581407606601742 7.5530692785978344 4.7326650321483603 6.1375441849231747 4.8693105429410961 7.627937048673628 4.7657429128885269 5.0011828690767306 5.753469079732894 5.4045305997133282 6.875454142689704 4.4059667736291912 5.215936556458475 5.4103914797306043 6.3402117341756821 6.3253698945045462 5.1313894093036634 6.7264609634876251 4.7035433351993561 5.1532434374094009
leaf_count=23 31 21 25 20 32 20 21 25 24 30 20 23 23 27 26 22 29 20 22
internal_value=0 0.00395859 -0.0106049 -0.00370864 -0.0155698 -0.0253494 0.00184661 -0.00191574 0.00507795 -0.0198044 0.000472053 -0.0082163 0.0109308 0.0217535 0.00191821 0.0150112 0.0217016 0.0142138 -0.00804097
internal_weight=0 82.638 30.9536 23.4005 17.263 12.3937 77.9053 60.5893 43.5594 17.0299 37.806 20.6508 17.1551 11.7506 16.2448 17.316 11.8579 9.91948 10.1544
internal_count=484 356 128 97 72 52 335 261 188 73 163 89 74 50 69 74 51 43 43
is_linear=0
shrinkage=0.05


Tree=35
num_leaves=17
num_cat=0
split_feature=0 0 0 1 0 0 1 0 0 0 1 1 1 1 0 0
split_gain=1.72784 2.19727 1.64884 3.34615 1.52293 1.50668 1.43996 1.47676 1.84069 1.55736 1.43879 3.96732 1.3456 1.1292 0.681575 0.52438
threshold=99887.000000000015 99565.000000000015 100440.00000000001 25.517447265000005 100975.00000000001 102330.00000000001 81.145466495000008 98487.000000000015 95256.000000000015 92022.500000000015 29.936219020000003 19.094725420000003 21.896012200000005 38.663429235000009 92528.500000000015 91446.000000000015
decision_type=2 2 2 2 2 2 2 2 2 2 2 2 2 2 2 2
left_child=1 6 -2 -4 -5 -6 7 8 9 15 11 14 -10 -14 -11 -1
right_child=2 -3 3 4 5 -7 -8 -9 12 10 -12 -13 13 -15 -16 -17
leaf_value=-0.00094871547705500546 -0.030420000055838739 0.036897943276482145 0.028166868174084293 0.0088566051673894929 -0.037993597515261206 -0.0021201539617856516 0.023260743084969667 -0.02044827323992545 0.035264310930190085 -0.012106304591992438 0.0064236007595162284 -0.052737275883239114 -0.0072729545473892987 0.0202277334421373 0.011378202427985396 0.018080481042406296
leaf_weight=6.6625967621803266 7.541479870676997 4.71891926229 6.1383129358291653 4.8687608689069775 7.5907405912876111 4.763868048787117 7.077172026038169 8.1252522468566877 5.641365215182307 8.1506380289793068 8.3743639141321164 5.8415655046701422 7.3990191966295225 7.5329927206039429 4.9754932820796958 7.928458571434021
leaf_count=28 31 21 25 20 32 20 30 36 24 34 37 27 32 32 21 34
internal_value=0 0.0037704 -0.0100926 -0.00353065 -0.0148275 -0.024161 0.00175871 -0.000395758 0.00221088 -0.00379908 -0.0108381 -0.0184593 0.0144605 0.00660076 -0.00320444 0.00939133
internal_weight=0 82.4278 30.9032 23.3617 17.2234 12.3546 77.7089 70.6317 62.5065 41.9331 27.3421 18.9677 20.5734 14.932 13.1261 14.5911
internal_count=484 356 128 97 72 52 335 305 269 181 119 82 88 64 55 62
is_linear=0
shrinkage=0.05


Tree=36
num_leaves=19
num_cat=0
split_feature=2 2 2 2 2 1 2 1 2 1 1 2 2 1 2 1 1 2
split_gain=0.594819 1.61267 1.34879 1.16254 1.02953 1.5429 0.988693 0.650207 1.11836 1.60587 2.31918 0.902438 0.619256 0.557005 1.24375 0.882112 1.01835 0.814606
threshold=49.66380919436309 52.60466124223624 46.965417733938459 50.957628338351704 44.241408741201148 78.381628150000026 53.795141762453135 10.104288795 55.316512332851168 54.263702075000005 27.378020655000004 60.171311277749901 48.306972919902428 25.976102690000001 34.131594961079664 32.943866110000009 42.068432210000005 37.940656987230518
decision_type=2 2 2 2 2 2 2 2 2 2 2 2 2 2 2 2 2 2
left_child=2 3 4 -2 5 13 -3 -8 -9 10 11 -10 -4 17 -15 -16 -17 -1
right_child=1 6 12 -5 -6 -7 7 8 9 -11 -12 -13 -14 14 15 16 -18 -19
leaf_value=-0.0049112003668528373 0.0060193552549310013 -0.019891895232365481 -0.032336230658562164 0.03959269607844329 0.015345226586607428 0.022819162986211453 0.018954302544804322 -0.020379322588150197 0.011956431708249044 -0.015160079372726943 0.03161101016898718 -0.01609042098912862 -0.0086848600413162568 -0.024470462063062675 0.022379004013986969 -0.022864321392201813 0.0076935796017232527 -0.031634997824018095
leaf_weight=6.8599809408187848 5.5990535467863065 5.6816035360097876 4.940549358725546 4.7794869840145111 9.0562099367380124 4.8904481381177893 5.167635813355445 5.6502529829740515 5.3875846415758186 7.8253170996904364 8.3681005835533124 6.1328915953636169 6.2923938930034637 4.9547574073076275 4.713485702872279 4.2325116842985135 7.6619016081094742 4.8803078532218933
leaf_count=30 24 24 21 21 39 21 21 23 22 33 35 25 27 21 22 21 32 22
internal_value=0 0.00374314 -0.00351403 0.0214804 0.000188321 -0.0034056 -0.000420463 0.00245065 -0.000105537 0.00402784 0.0115775 -0.00297423 -0.0190874 -0.00725664 -0.00248523 0.00407379 -0.00318015 -0.01602
internal_weight=0 54.5919 58.4825 10.3785 47.2496 38.1934 44.2134 38.5318 33.3641 27.7139 19.8886 11.5205 11.2329 33.3029 21.5627 16.6079 11.8944 11.7403
internal_count=484 228 256 45 208 169 183 159 138 115 82 47 48 148 96 75 53 52
is_linear=0
shrinkage=0.05


Tree=37
num_leaves=19
num_cat=0
split_feature=2 2 2 2 1 1 2 2 2 2 2 1 2 2 2 2 2 1
split_gain=0.537921 1.46084 1.22041 1.06119 0.967629 2.66633 2.202 0.89479 0.657157 1.75154 1.23626 1.14046 0.64426 1.53778 1.14561 0.728133 0.563373 0.425651
threshold=49.66380919436309 52.60466124223624 46.965417733938459 50.957628338351704 20.184347825000007 28.126755390000003 39.402641058067594 53.795141762453135 40.354651837416732 35.919961309383964 43.82155804331925 44.931896820000013 56.022862191095719 57.946298656307938 60.621604496192937 68.136044558047061 48.306972919902428 27.132645160000006
decision_type=2 2 2 2 2 2 2 2 2 2 2 2 2 2 2 2 2 2
left_child=2 3 4 -2 6 -6 -1 -3 9 11 -10 -7 -9 -14 -15 17 -4 -16
right_child=1 7 16 -5 5 8 -8 12 10 -11 -12 -13 13 14 15 -17 -18 -19
leaf_value=-0.0067869520555960024 0.005721975940712918 -0.018950045841100202 -0.030845963658305033 0.037857763184120541 -0.033507014505021131 0.029100406788503549 0.037664078616629085 0.013686036424246404 0.026925361351367045 -0.019530521123553388 -0.0063118948662304886 -0.0054190697990246436 -0.024425375263255989 0.022040695584262818 0.0012052111066379286 0.013180743326162682 -0.0082575705475566932 -0.01808700741497701
leaf_weight=6.2748157232999784 5.5956323444843274 5.6661898344755164 4.9207891672849637 4.7493691295385361 6.2527071535587302 4.6601878106594139 5.0110231339931488 9.431458115577696 6.1929430812597257 8.7915814071893674 5.1029996871948242 4.9176058322191238 5.7843559533357647 6.5848624259233501 5.1439986228942889 5.0842973142862311 6.2872304469347 6.436700627207756
leaf_count=27 24 24 21 21 29 20 23 39 27 40 21 21 24 27 21 21 27 27
internal_value=0 0.00356421 -0.00334293 0.0204755 0.000178738 -0.00383405 0.0129497 -0.000399975 0.00242027 -0.00341545 0.0119103 0.0113768 0.00233255 -0.00135552 0.00438406 -0.00259263 -0.0181748 -0.00951765
internal_weight=0 54.4769 58.4119 10.345 47.2039 35.918 11.2858 44.1319 29.6653 18.3694 11.2959 9.57779 38.4657 29.0342 23.2499 16.665 11.208 11.5807
internal_count=484 228 256 45 208 158 50 183 129 81 48 41 159 120 96 69 48 48
is_linear=0
shrinkage=0.05


Tree=38
num_leaves=18
num_cat=0
split_feature=2 2 1 2 2 1 1 2 2 1 1 2 2 2 2 2 1
split_gain=0.50644 2.55264 1.00228 0.910801 1.70339 1.46625 2.03428 0.903325 1.88342 1.49788 0.992512 0.547102 0.542338 1.03328 0.905674 0.658223 0.385847
threshold=53.270742093257638 54.718952620261305 81.145466495000008 49.063171025743124 42.935195328709405 21.896012200000005 34.229637510000011 36.653046753712054 34.131594961079664 42.068432210000005 32.387830285000007 50.957628338351704 57.946298656307938 60.621604496192937 56.022862191095719 68.136044558047061 27.132645160000006
decision_type=2 2 2 2 2 2 2 2 2 2 2 2 2 2 2 2 2
left_child=2 -2 3 4 7 -6 -7 8 -1 10 -9 -5 14 -14 -3 16 -15
right_child=1 12 -4 11 5 6 -8 9 -10 -11 -12 -13 13 15 -16 -17 -18
leaf_value=-0.01540276924421754 0.037340417678534708 0.0040128640542472739 0.014840105826096246 -0.02472809072022154 0.028200131087897509 -0.02304061185430336 0.021362794330249096 -0.015425448455706692 0.022265377585429263 0.0043604864747547826 -0.045941322885779276 -0.0059265901346190605 0.020928359796402424 0.0011448693830560354 -0.02321390566810845 0.012540283045534034 -0.017234924421332495
leaf_weight=7.3382387161254901 5.1523029059171668 6.4745874702930433 7.44748730957508 7.55855745077133 7.3913172930479076 5.1906810104846937 5.1273116767406464 7.6850020587444323 6.0580396056175232 6.2019590735435477 4.0787337273359299 7.9270823448896408 6.5880138576030758 5.1443492621183413 5.781970277428627 5.0769565254449835 6.4176753759384155
leaf_count=31 21 27 32 32 33 22 22 36 26 26 21 35 27 21 24 21 27
internal_value=0 0.00445353 -0.00252794 -0.00453157 -0.0011953 0.0112016 -0.000975263 -0.00819553 0.00163145 -0.0155231 -0.0260059 -0.0151036 -0.000321733 0.00416861 -0.00883123 -0.00246722 -0.00905711
internal_weight=0 40.6359 72.0044 64.5569 49.0713 17.7093 10.318 31.362 13.3963 17.9657 11.7637 15.4856 35.4836 23.227 12.2566 16.639 11.562
internal_count=484 168 316 284 217 77 44 140 57 83 57 67 147 96 51 69 48
is_linear=0
shrinkage=0.05


Tree=39
num_leaves=20
num_cat=0
split_feature=1 1 2 2 2 1 2 2 2 1 1 1 2 1 1 1 2 2 2
split_gain=0.49734 2.2056 1.75235 1.19374 4.82481 1.45817 2.06592 0.969677 1.8374 1.37362 1.07167 1.18648 0.729784 0.79161 1.0641 0.547586 1.05139 0.51951 0.509311
threshold=30.414600805000003 23.980397755000002 53.270742093257638 43.82155804331925 47.218305682719553 16.973795500000005 53.466022462251551 65.883671549024129 59.250273069591948 109.80511162000001 78.381628150000026 32.943866110000009 42.935195328709405 48.705978475000009 41.398962290000007 52.008536805000013 37.136047898955091 60.171311277749901 36.955497602269723
decision_type=2 2 2 2 2 2 2 2 2 2 2 2 2 2 2 2 2 2 2
left_child=1 3 -3 18 -5 6 -6 8 9 10 11 -2 15 14 -14 16 -13 -8 -1
right_child=7 2 -4 4 5 -7 17 -9 -10 -11 -12 12 13 -15 -16 -17 -18 -19 -20
leaf_value=-0.0016229967984985234 0.026103926610327871 -0.038351056203907656 0.00051142186542366987 0.055971277803431731 -0.025787724478848056 0.01860321575981019 0.013489645478912144 -0.018260099896238485 0.034927773046372734 -0.022126531490700287 0.023839051842447188 0.013621270635004699 0.01227228829349661 0.021139855176029357 -0.01882558421784461 -0.023572945242646304 -0.018580179988062846 -0.0069212024349173508 -0.02436806571843279
leaf_weight=4.7408151626586896 4.4192911684513083 7.0566295534372312 4.9252583980560303 4.2754937559366217 8.9556534588336998 7.2165059745311728 7.8707976043224317 4.7943957000970832 4.7379459440708152 5.1429471224546424 6.546592876315116 4.9039116352796572 5.9723803699016589 5.5113873332738867 5.0996811985969543 4.7631945163011542 5.2471594214439392 5.1622483283281326 5.1184922605752945
leaf_count=20 19 34 20 20 38 30 32 20 20 22 28 21 25 24 22 20 25 21 23
internal_value=0 -0.00338886 -0.0223763 0.00186046 0.0063635 -0.000898826 -0.00729923 0.00326208 0.00523336 0.00227809 0.00523383 0.00184266 -0.00156132 0.00565626 -0.00205108 -0.00958667 -0.00302388 0.00540513 -0.0134312
internal_weight=0 55.3219 11.9819 43.34 33.4807 29.2052 21.9887 57.1389 52.3445 47.6065 42.4636 35.917 31.4977 16.5834 11.0721 14.9143 10.1511 13.033 9.85931
internal_count=484 238 54 184 141 121 91 246 226 206 184 156 137 71 47 66 46 53 43
is_linear=0
shrinkage=0.05


Tree=40
num_leaves=18
num_cat=0
split_feature=1 1 2 1 1 2 2 2 2 2 2 1 1 2 2 2 2
split_gain=0.449812 2.04094 2.00646 1.64203 1.43288 0.891058 0.905834 0.825151 1.02334 0.657822 0.65452 1.52778 1.3364 0.46059 0.399633 0.0396723 0.0324798
threshold=30.414600805000003 21.896012200000005 51.707977348993047 16.777732060000002 11.014981230000002 64.86986294310222 49.66380919436309 53.795141762453135 59.079662167691872 47.502716455220998 39.304196207185129 49.744790595000005 61.222790730000007 42.935195328709405 52.60466124223624 47.218305682719553 40.354651837416732
decision_type=2 2 2 2 2 2 2 2 2 2 2 2 2 2 2 2 2
left_child=1 3 16 4 14 6 10 -8 -9 -6 11 -2 13 -12 15 -1 -3
right_child=5 2 -4 -5 9 -7 7 8 -10 -11 12 -13 -14 -15 -16 -17 -18
leaf_value=0.017608429446005668 -0.0061246408550715281 -0.031771787401521402 0.00030215226056701195 0.022383395124571492 -0.00069570361342329782 -0.016531940252482651 0.030270492424917583 -0.0038085247275066675 0.0254137964227346 -0.024049090308595145 -0.0084022266430613581 0.027314010401991658 -0.023491977741837401 0.011181714010306284 -0.00084484697699543877 0.010955052866847679 -0.038015816826837967
leaf_weight=4.2877386212348991 7.7972832471132261 3.8529904037714022 7.6179132312536231 8.4874829500913602 4.8500018417835218 5.247870832681655 5.4832145720720318 8.0317050367593747 4.7782824784517279 7.9717657566070557 4.7933082282543209 6.0790311396121979 6.8473582416772834 8.0351083129644376 8.8378091752529127 4.6924544870853424 4.5328684896230698
leaf_count=20 35 20 32 36 21 22 24 34 20 33 22 26 29 34 36 20 20
internal_value=0 -0.00323057 -0.0182729 0.00292202 -0.00246895 0.0031014 0.00508872 0.0140394 0.00709176 -0.0152154 0.00020866 0.00852439 -0.005656 0.00386422 0.00670332 0.0141318 -0.0351469
internal_weight=0 55.131 16.0038 39.1273 30.6398 57.0932 51.8453 18.2932 12.81 12.8218 33.5521 13.8763 19.6758 12.8284 17.818 8.98019 8.38586
internal_count=484 238 72 166 130 246 224 78 54 54 146 61 85 56 76 40 40
is_linear=0
shrinkage=0.05


Tree=41
num_leaves=20
num_cat=0
split_feature=2 2 2 2 2 2 1 2 2 2 1 1 1 2 1 1 1 2 1
split_gain=0.422727 1.44794 1.16227 0.985189 0.821342 0.758767 1.17357 0.599027 1.44819 1.09809 1.48724 1.51789 0.58677 1.13183 1.46918 2.15803 0.912178 0.565463 0.0149791
threshold=49.66380919436309 52.60466124223624 46.965417733938459 50.957628338351704 53.795141762453135 44.241408741201148 78.381628150000026 35.554194396418538 32.259266011205938 36.955497602269723 42.068432210000005 31.950062175000003 10.104288795 55.316512332851168 54.263702075000005 27.378020655000004 18.040288975000003 48.306972919902428 20.184347825000007
decision_type=2 2 2 2 2 2 2 2 2 2 2 2 2 2 2 2 2 2 2
left_child=2 3 5 -2 -3 6 7 8 -1 -9 11 18 -6 -14 15 16 -15 -4 -11
right_child=1 4 17 -5 12 -7 -8 9 -10 10 -12 -13 13 14 -16 -17 -18 -19 -20
leaf_value=0.0037699108460286152 0.0058479530906004823 -0.018609088102723683 -0.030220506622227361 0.036926342478151804 0.017515621987204268 0.013643432870418103 0.020416918369880601 0.020462090906357727 -0.034640043845487939 -0.0073830355856714901 0.012950385269912807 -0.043506565485614962 -0.02101218609727739 0.010531313930988995 -0.014819085389801171 0.030190556414867536 -0.017641136400383291 -0.0075222985254539687 -0.0031828921828826462
leaf_weight=4.6911395639181119 5.5773736834526044 5.6369953900575629 4.895614951848982 4.6979522258043289 5.1605662256479254 8.8647274821996671 4.8230077773332587 4.5360407829284695 5.1459395438432693 4.4547923803329486 6.2089204192161551 3.7661618441343299 5.6419862955808631 5.8786697536706978 7.7998865842819205 8.3220351785421354 5.6200599521398544 6.2427297234535217 4.0549621731042862
leaf_count=20 24 24 21 21 21 39 21 20 22 20 26 20 23 24 33 35 23 27 20
internal_value=0 0.00315559 -0.00299019 0.0200572 -0.000786055 0.00048171 -0.00261468 -0.00599534 -0.016323 -0.00158223 -0.00699174 -0.0170781 0.00182873 -0.00060503 0.00356348 0.0107974 -0.00323811 -0.0174988 -0.00538164
internal_weight=0 54.3355 57.684 10.2753 44.0602 46.5457 37.681 32.858 9.83708 23.0209 18.4848 12.2759 38.4232 33.2626 27.6207 19.8208 11.4987 11.1383 8.50975
internal_count=484 228 256 45 183 208 169 148 42 106 86 60 159 138 115 82 47 48 40
is_linear=0
shrinkage=0.05


Tree=42
num_leaves=20
num_cat=0
split_feature=0 0 0 1 0 0 0 0 0 0 1 1 1 0 0 0 1 1 1
split_gain=1.56937 1.95355 1.50027 3.10935 1.40479 1.51457 1.15095 2.608 3.78873 1.3916 2.63309 2.75365 2.04923 1.93969 1.35882 0.631029 1.06144 0.496608 0.104038
threshold=99887.000000000015 99565.000000000015 100440.00000000001 25.517447265000005 100975.00000000001 102330.00000000001 92022.500000000015 93102.000000000015 93840.000000000015 94767.500000000015 31.950062175000003 39.173492810000006 62.931189425000007 97873.500000000015 92447.500000000015 90732.000000000015 23.980397755000002 46.579645625000005 8.9763002000000025
decision_type=2 2 2 2 2 2 2 2 2 2 2 2 2 2 2 2 2 2 2
left_child=1 6 -2 -4 -5 -6 15 14 -9 -10 13 -12 17 -11 18 -1 -17 -13 -8
right_child=2 -3 3 4 5 -7 7 8 9 10 11 12 -14 -15 -16 16 -18 -19 -20
leaf_value=5.8333757479164068e-05 -0.02909217447486543 0.035266869044964948 0.027287508609380381 0.0085261696819708948 -0.037285451203993923 -0.0011807621416551391 -0.0014875601917649197 0.049601497718936217 -0.023301429144277495 0.037467273840230762 -0.043488232750318545 0.0041341154298454698 -0.022859675624448531 -0.00013278473383744686 -0.035689876060328966 0.035243543880990762 0.00423476072158303 0.026951576919057516 -0.011671988306103368
leaf_weight=5.9344081580638912 7.4930258393287685 4.603995367884635 6.099704027175906 4.8324218839406994 7.5045591145753843 4.7389496117830276 4.9721605181694049 4.2851007133722296 5.4777603149414054 7.6065853834152204 4.2720863223075893 4.6225090473890287 5.3025809675455085 6.2469078749418259 6.711111754179 5.7157536447048169 5.3362057060003281 4.9255845546722412 5.0590284466743469
leaf_count=26 31 21 25 20 32 20 21 19 24 34 20 21 22 27 30 25 23 21 22
internal_value=0 0.00363541 -0.0096433 -0.00335519 -0.0143011 -0.0233108 0.00173094 -0.00154714 0.00500567 3.61567e-05 0.00391282 -0.00811277 0.00206368 0.0205124 -0.0182749 0.0132098 0.0202716 0.015905 -0.00662387
internal_weight=0 81.0718 30.6687 23.1756 17.0759 12.2435 76.4678 59.4814 42.7391 38.454 32.9763 19.1228 14.8507 13.8535 16.7423 16.9864 11.052 9.54809 10.0312
internal_count=484 356 128 97 72 52 335 261 188 169 145 84 64 61 73 74 48 42 43
is_linear=0
shrinkage=0.05


Tree=43
num_leaves=18
num_cat=0
split_feature=0 0 1 0 1 1 0 1 0 0 0 1 1 0 0 0 0
split_gain=1.41987 1.77009 1.49446 3.73694 1.23049 1.16309 3.27245 1.88104 1.68509 1.2375 2.53512 1.43315 1.21136 0.973216 0.605175 0.535048 0.520552
threshold=99887.000000000015 99565.000000000015 18.491992870000004 100695.00000000001 41.398962290000007 34.229637510000011 91508.500000000015 22.297173000000004 96422.000000000015 92894.500000000015 96369.500000000015 49.744790595000005 25.976102690000001 94767.500000000015 92022.500000000015 92558.000000000015 101935.00000000001
decision_type=2 2 2 2 2 2 2 2 2 2 2 2 2 2 2 2 2
left_child=1 5 -2 -4 -5 7 -7 8 14 -8 -11 -12 -9 -14 -1 -16 -6
right_child=2 -3 3 4 16 6 9 12 -10 10 11 -13 13 -15 15 -17 -18
leaf_value=0.010187595889565221 -0.029897906705136465 0.033627543674968952 0.025179213208802089 0.0019463251557600551 -0.039226801169819206 0.044481045258187413 -0.020970008108343319 -0.039150039220278765 0.025671084731665884 0.027646279609566567 -0.023482574802462818 0.010459480580990973 -0.022883151144606886 0.0055168685857812936 -0.01613938805119405 0.0030980177731020696 -0.016880515318381337
leaf_weight=6.4051177352666917 6.7776873260736492 4.587441310286521 7.7690857052803066 5.5643920749425915 4.8178390860557538 5.3903458118438747 4.8958753794431713 4.4712664186954525 6.9595246315002433 8.6972540766000765 6.6113453656434995 5.8723028749227524 6.0327755212783796 6.0334679037332535 8.7459294646978361 6.1602956503629676 5.676940381526947
leaf_count=28 28 21 32 23 21 24 21 21 30 38 29 25 28 28 37 26 24
internal_value=0 0.00346279 -0.00918146 -0.00328889 -0.0170612 0.00164859 0.00901634 -0.00352549 0.00430981 0.00168541 0.00692211 -0.00751625 -0.0169199 -0.00868233 -0.00266602 -0.00818915 -0.027139
internal_weight=0 80.8629 30.6059 23.8283 16.0592 76.2755 31.4671 44.8084 28.2709 26.0768 21.1809 12.4836 16.5375 12.0662 21.3113 14.9062 10.4948
internal_count=484 356 128 100 68 335 137 198 121 113 92 54 77 56 91 63 45
is_linear=0
shrinkage=0.05


Tree=44
num_leaves=19
num_cat=0
split_feature=2 2 2 2 2 2 1 1 2 1 1 2 2 2 2 2 2 1
split_gain=0.532381 1.25627 1.0003 0.892622 0.760671 0.651536 1.0335 0.589765 1.21273 1.64244 1.13016 0.809788 0.574374 1.19448 0.883384 0.548732 0.547418 0.358106
threshold=49.66380919436309 52.60466124223624 46.965417733938459 50.957628338351704 53.795141762453135 44.241408741201148 78.381628150000026 25.976102690000001 34.131594961079664 32.387830285000007 40.924348740000006 37.940656987230518 56.022862191095719 57.946298656307938 60.621604496192937 48.306972919902428 68.136044558047061 27.132645160000006
decision_type=2 2 2 2 2 2 2 2 2 2 2 2 2 2 2 2 2 2
left_child=2 3 5 -2 -3 6 7 11 -9 -10 -11 -1 -6 -14 -15 -4 17 -16
right_child=1 4 15 -5 12 -7 -8 8 9 10 -12 -13 13 14 16 -17 -18 -19
leaf_value=-0.0041931218940839607 0.0058044220838692432 -0.017344758031273978 -0.029453275522903583 0.035531039353089072 0.013156993360438294 0.012114416563546879 0.018737177561477449 -0.022968071277768898 0.034166270469142522 -0.025459214243087658 0.00691087273195752 -0.031149196120296197 -0.021523323307900938 0.019501683137503549 0.0016372404198645289 -0.007005817045382938 0.011564820427354853 -0.016112470782237057
leaf_weight=6.7597255706787092 5.5307505428791028 5.593321666121482 4.8614833801984769 4.6472263187170029 9.3638255596160871 8.7896247059106809 4.7647483050823203 4.921055972576144 3.7931377291679409 3.9624713063240042 8.4394025057554227 4.7395962625741959 5.7333925366401699 6.5588481575250652 5.1259611845016497 6.1876403391361237 5.0356789380311957 6.3765545636415482
leaf_count=30 24 24 21 21 39 39 21 21 18 21 36 22 24 27 21 27 21 27
internal_value=0 0.00355417 -0.00336853 0.0193775 -0.000123802 -0.000134448 -0.00301467 -0.00619237 -0.0012307 0.00537447 -0.00343156 -0.0153034 0.0023981 -0.00109627 0.00397435 -0.0168824 -0.00218361 -0.00820252
internal_weight=0 53.9656 57.2189 10.178 43.7876 46.1698 37.3801 32.6154 21.1161 16.195 12.4019 11.4993 38.1943 28.8304 23.097 11.0491 16.5382 11.5025
internal_count=484 228 256 45 183 208 169 148 96 75 57 52 159 120 96 48 69 48
is_linear=0
shrinkage=0.05


Tree=45
num_leaves=18
num_cat=0
split_feature=2 2 1 1 1 2 1 1 2 2 2 1 1 1 1 2 2
split_gain=0.509724 2.37112 0.763685 3.05101 1.55673 1.53701 0.698849 1.08201 0.608536 0.470073 1.8309 0.857715 1.85404 1.95945 0.419295 0.646045 1.07436
threshold=53.270742093257638 54.718952620261305 30.414600805000003 23.414667440000002 16.777732060000002 47.218305682719553 36.815853095000008 40.924348740000006 38.543301823138862 62.092711015165925 64.86986294310222 50.07009368500001 27.293876025000003 15.102166605000003 81.145466495000008 37.940656987230518 47.673649675992785
decision_type=2 2 2 2 2 2 2 2 2 2 2 2 2 2 2 2 2
left_child=2 -2 3 4 5 8 -4 -8 -1 11 -11 12 13 -3 15 -9 -17
right_child=1 9 6 -5 -6 -7 7 14 -10 10 -12 -13 -14 -15 -16 16 -18
leaf_value=-0.0053667409827598414 0.036216384066655734 0.0089961807423890941 0.015328561467386915 -0.035416046848553671 0.019635508017730965 -0.022777633715790432 -0.025007415053368256 -0.015723108002741539 0.020656041239963088 0.02852415344949194 -0.0078597593110536004 -0.022598584509802226 0.024468258308609218 -0.034831971200977398 0.012715573585616903 0.016044162527107813 -0.013856770302869026
leaf_weight=4.8344498723745399 5.1348761469125739 5.4114682674407977 8.0690493285655958 7.8158389478921881 7.3897231966257086 8.6349896639585477 4.1312493830919292 5.5419316142797532 4.1968240290880203 5.7921903580427161 8.5789868980646116 5.1748917251825324 5.4389527738094321 4.8230072855949402 7.2841131389141074 7.9325072020292264 4.8353466242551804
leaf_count=21 21 22 36 39 32 37 20 23 20 24 36 22 23 20 32 34 22
internal_value=0 0.00447484 -0.00256866 -0.00814209 0.000365616 -0.0076949 0.00227888 -0.00126352 0.00672602 -0.000152963 0.00680449 -0.00494888 0.000878519 -0.0116579 0.00256911 -0.00146743 0.0047203
internal_weight=0 40.3544 70.666 32.8718 25.056 17.6663 37.7942 29.7251 9.03127 35.2195 14.3712 20.8483 15.6734 10.2345 25.5939 18.3098 12.7679
internal_count=484 168 316 149 110 78 167 131 41 147 60 87 65 42 111 79 56
is_linear=0
shrinkage=0.05


Tree=46
num_leaves=20
num_cat=0
split_feature=2 2 2 2 2 1 1 2 2 1 2 2 1 2 2 2 2 2 1
split_gain=0.485448 1.24332 0.880492 0.815326 0.698364 0.601925 2.19747 1.62274 0.731292 1.45038 0.811627 1.40412 0.676237 0.514467 0.484799 1.06674 0.838408 0.540309 0.319559
threshold=49.66380919436309 52.60466124223624 46.965417733938459 50.957628338351704 53.795141762453135 20.184347825000007 25.976102690000001 39.402641058067594 35.919961309383964 44.931896820000013 40.354651837416732 43.82155804331925 42.068432210000005 48.306972919902428 56.022862191095719 57.946298656307938 60.621604496192937 68.136044558047061 36.815853095000008
decision_type=2 2 2 2 2 2 2 2 2 2 2 2 2 2 2 2 2 2 2
left_child=2 3 5 -2 -3 7 -7 -1 9 -8 12 -12 -10 -4 -6 -16 -17 18 -18
right_child=1 4 13 -5 14 6 8 -9 10 -11 11 -13 -14 -15 15 16 17 -19 -20
leaf_value=-0.0067262128600508288 0.0062073766479806081 -0.01680921451736744 -0.028131257337946608 0.034668932151818564 0.012050128431874632 -0.037285597488864494 0.031363650216705903 0.032139106415640599 -0.03094576940496534 -0.0070844098297794984 0.020319550673847983 -0.014013632258009893 -0.0033314283537121563 -0.0063539478578059777 -0.020408055434522742 0.018860937232724244 -0.015785992968574643 0.011384776815325895 0.0009809661641033121
leaf_weight=6.2223286032676679 5.52784316241741 5.5666894465684882 4.839244678616522 4.6186338365077972 9.3363293856382352 4.205681860446929 5.0022973269224185 4.7253629863262177 3.9258713126182574 4.8128210306167603 6.4648743867874128 5.521167054772377 5.0933313518762589 6.1694784462451935 5.7114869803190258 6.5526910275220898 6.3317139744758624 5.0333933979272834 5.1556074470281601
leaf_count=27 24 24 21 21 39 20 22 23 22 21 29 23 21 27 24 27 26 21 22
internal_value=0 0.00339574 -0.00322557 0.019163 -0.000266184 -0.000184154 -0.0033827 0.0100493 0.00124362 0.0125107 -0.00402116 0.00450455 -0.0153514 -0.0159269 0.00214953 -0.00106171 0.00372719 -0.00227538 -0.00826084
internal_weight=0 53.8344 56.9825 10.1465 43.6879 45.9737 35.026 10.9477 30.8204 9.81512 21.0052 11.986 9.0192 11.0087 38.1212 28.7849 23.0734 16.5207 11.4873
internal_count=484 228 256 45 183 208 158 50 138 43 95 52 43 48 159 120 96 69 48
is_linear=0
shrinkage=0.05


Tree=47
num_leaves=19
num_cat=0
split_feature=2 2 1 2 2 1 1 2 1 1 1 2 2 1 1 1 2 2
split_gain=0.449465 2.15078 0.699084 0.859841 1.28662 1.11507 1.56054 1.08099 1.30666 0.912548 1.36449 0.440382 1.71728 0.792144 1.65739 1.80598 0.439935 0.0561987
threshold=53.270742093257638 54.718952620261305 81.145466495000008 49.063171025743124 42.935195328709405 13.236804675000002 23.414667440000002 45.474130537671144 21.896012200000005 34.229637510000011 44.931896820000013 62.092711015165925 64.86986294310222 50.07009368500001 27.293876025000003 14.434170525000001 50.957628338351704 37.201318059117817
decision_type=2 2 2 2 2 2 2 2 2 2 2 2 2 2 2 2 2 2
left_child=2 -2 3 4 5 -1 -7 -6 -9 17 -11 13 -13 14 15 -3 -5 -8
right_child=1 11 -4 16 7 6 9 8 -10 10 -12 12 -14 -15 -16 -17 -18 -19
leaf_value=-0.030449442565302784 0.034436009601746496 0.01070232463898785 0.012260497941339564 -0.023113699924886044 0.029447661379680197 0.024700957988567734 -0.02574052914581745 0.022152149731664947 -0.011406569198377755 0.017463040439988125 -0.014110456930817855 0.027505638987686844 -0.007709837003899849 -0.021853336992849734 0.023109748635844543 -0.031382444008077472 -0.0060921732083039368 -0.017356935609900037
leaf_weight=4.3397385030984905 5.1326963156461707 4.9174705892801303 7.2678956836462012 7.4848645031452161 5.0928637385368374 4.2365486770868328 4.3181070685386675 4.8272760659456235 7.2676645815372467 5.9393838793039313 8.0730696320533735 5.8079576045274726 8.5703318268060666 5.1594148725271216 5.4128853678703299 5.2931583523750305 7.702449768781662 3.7219708114862442
leaf_count=19 21 20 32 32 23 18 20 22 32 28 34 24 36 22 23 22 35 21
internal_value=0 0.00420117 -0.0024228 -0.00411661 -0.00082471 -0.0069687 -0.00309256 0.0101239 0.00198723 -0.00843202 -0.000727567 -0.000212398 0.00651508 -0.00486668 0.000742889 -0.0111143 -0.014481 -0.0218595
internal_weight=0 40.2939 70.2718 63.0039 47.8166 30.6288 26.2891 17.1878 12.0949 22.0525 14.0125 35.1612 14.3783 20.7829 15.6235 10.2106 15.1873 8.04008
internal_count=484 168 316 284 217 140 121 77 54 103 62 147 60 87 65 42 67 41
is_linear=0
shrinkage=0.05


Tree=48
num_leaves=18
num_cat=0
split_feature=2 2 2 2 2 1 1 2 2 1 2 2 2 2 1 2 1
split_gain=0.436289 1.22994 0.793883 0.704367 0.674289 1.09565 2.0501 0.62772 0.539672 0.825814 0.530575 1.9086 0.948515 0.803366 0.49365 0.483386 0.177905
threshold=49.66380919436309 52.60466124223624 46.965417733938459 50.957628338351704 55.316512332851168 54.263702075000005 27.378020655000004 60.171311277749901 44.526790762905968 78.381628150000026 34.131594961079664 36.653046753712054 40.017567875036598 38.543301823138862 29.516721505000003 48.306972919902428 17.466775230000003
decision_type=2 2 2 2 2 2 2 2 2 2 2 2 2 2 2 2 2
